3126 128
</s> 0.003127 0.003453 -0.002992 -0.002561 0.001068 0.002360 0.000735 0.000165 -0.002815 0.001733 -0.003403 0.000976 -0.000587 -0.000748 -0.002590 -0.001470 0.002015 0.002364 0.002320 0.001248 0.001207 -0.002971 -0.003200 0.003883 0.002970 0.002414 -0.000472 0.003137 -0.000387 0.000574 -0.000117 -0.002331 0.001025 -0.001045 -0.002989 0.003714 0.003421 -0.000856 -0.000177 0.000398 -0.002842 -0.003131 0.003558 0.000049 -0.002017 -0.002377 -0.002403 0.001326 0.000157 0.001040 -0.003292 -0.002975 -0.000102 0.000893 0.001992 -0.002477 0.003187 0.000724 0.000875 -0.000475 0.002333 -0.001787 -0.001639 0.001686 -0.000588 0.000805 0.001410 -0.003194 -0.001549 0.002276 0.003306 0.003072 -0.002380 -0.001647 -0.000710 0.001564 -0.002960 0.002342 0.002178 -0.001249 -0.001212 -0.001749 0.003304 0.003056 -0.000922 0.003293 0.003766 0.001418 0.003893 -0.002431 -0.001197 -0.001646 -0.002271 0.002199 0.001234 0.000332 -0.001714 0.001191 0.002390 0.000151 0.001781 -0.003869 0.003371 0.000375 -0.001431 -0.001628 -0.000584 -0.002293 -0.003414 -0.002216 0.003341 -0.001383 -0.002093 0.001810 -0.001331 0.003716 -0.001254 -0.003585 0.002122 -0.000058 -0.002726 0.000762 0.001127 -0.000376 0.001425 -0.003092 0.000688 0.001419 
2858 -1.460127 -0.888734 -0.475880 1.134777 -0.694806 -0.200252 2.707965 3.249766 0.526464 3.591196 0.800890 2.602955 -0.716609 -2.823323 2.496442 -4.501288 3.400890 -2.272115 0.957446 -1.583936 -0.898546 4.362920 1.574343 -1.515185 2.137178 1.768855 0.710331 1.746174 -1.031871 0.846086 -5.053596 -2.145485 0.656974 1.082765 -0.265022 0.245063 -1.915004 2.844815 -2.805158 4.396398 4.980124 1.851544 2.161436 -3.260737 3.498450 4.222094 -0.757591 -0.137408 -2.683800 -2.202096 2.053803 -5.215639 -2.468066 3.384974 -4.980000 -0.310202 -1.515603 -1.193507 0.716807 -1.882265 0.182823 0.967537 -0.591770 0.520223 0.634896 0.757885 4.452533 0.912151 -0.482361 -0.246563 -4.267447 0.390437 -2.154361 1.574237 -0.811573 2.317578 -2.763292 2.557349 -2.057103 -0.522487 -1.505223 1.629774 6.135621 -2.942021 0.575508 0.142695 1.117301 -0.976499 -1.454308 -1.161864 3.677660 1.631104 -0.892239 2.252993 0.454986 1.768381 -2.044768 2.001386 -0.196104 -0.895171 -3.281811 0.194502 1.624795 -1.542032 0.835792 2.179961 -0.780777 -3.536425 -0.865476 -2.137603 -2.729711 2.451845 -1.556522 4.552954 3.739908 -1.010608 0.969677 -0.556873 1.230377 2.723620 -3.520314 -0.588875 -0.358901 -2.313522 -3.759275 -1.891872 2.056613 1.013743 
260 1.256574 -3.992074 2.904957 -0.881980 -3.586287 -1.667444 2.962718 -2.187430 4.621651 4.774115 0.100078 -0.548241 3.329122 1.457906 -1.057930 -0.643784 0.543454 1.212839 4.167644 -0.419843 -1.968355 4.871378 -0.743893 -2.072092 1.574956 3.296074 -4.417622 4.352060 -0.656329 2.395528 -1.748690 -2.776176 2.668640 -2.126087 -2.238046 1.167837 4.151287 0.710369 -1.623562 0.550830 0.340969 2.910295 1.077748 1.098548 -4.314892 2.919556 0.802157 -1.920665 -4.624850 -0.300453 0.691496 -1.843709 -5.879781 2.005147 -2.375094 0.502765 -0.469566 -3.880651 1.669421 1.588087 -1.840536 -1.414183 2.637782 -0.095680 4.560767 -0.807717 0.514440 -3.445203 -1.879915 -1.509806 -4.421519 -0.830000 1.429094 0.961964 -1.165478 2.091591 -1.497897 0.117757 2.066435 -0.314537 -0.408575 -0.265041 4.131526 -3.502754 -1.860599 5.265660 -4.592277 0.139055 -0.095338 -2.958073 0.765306 -0.172838 -0.791076 0.697224 1.026713 5.582510 -4.761858 -1.615847 1.729294 -0.684858 0.876243 0.207528 2.215815 1.430863 0.680505 0.167013 -0.165013 -2.346851 3.306211 -1.061369 -3.962953 -1.655929 -1.169075 0.126286 1.091982 3.075330 -0.162007 -3.188225 0.241146 2.323941 -0.924804 -3.668145 1.570240 -2.010553 -3.241201 0.103813 3.316803 -1.843262 
1196 0.191228 0.672592 -0.484920 2.384572 -0.102610 3.137969 -1.438494 -1.301944 1.016524 -0.048299 -0.536124 3.006669 -0.441387 -0.243542 2.912926 -0.386602 2.740377 -0.584926 -0.340506 -0.604758 -1.072545 -0.644047 -0.821465 3.784179 -1.324754 -0.625575 2.245648 -0.423293 -1.003033 2.298449 -0.789291 -1.831802 -0.847238 -0.394752 1.591286 3.112367 -2.987108 -2.036757 2.716299 -1.056193 1.944733 -1.595863 0.687715 -1.106486 1.057051 0.423629 -2.989021 2.497674 -3.433892 1.903750 -2.412649 -3.134773 2.061379 -0.388108 -1.899028 0.853600 -2.340763 -2.878356 0.491491 -2.490665 3.177117 0.262580 4.793189 -5.790816 6.015607 3.628039 -0.195742 0.382755 -4.717927 -1.770788 -2.078094 -1.811420 5.804108 2.288952 -1.131398 1.477086 -1.595609 1.962579 0.127360 -0.113589 0.465338 4.158997 5.742645 3.857862 0.012668 0.966644 1.534742 -3.796535 2.377358 2.034319 -4.529703 -1.383301 -5.666078 -1.321693 0.242512 1.301416 0.022693 1.832282 -0.355913 -1.304619 -0.825591 -1.603601 -0.631526 -1.262003 0.995213 3.577135 0.828522 -1.329325 -4.546086 0.396801 -3.247790 4.379357 -0.984056 3.182063 0.253409 0.299923 0.587567 2.971060 -1.351120 2.602187 2.492938 4.610889 -1.230488 2.580199 -1.658002 2.422343 3.740233 4.930981 
2028 1.124221 -3.627391 -0.828282 3.021774 4.031807 -3.011841 -1.609187 2.012954 -2.142973 -6.127417 -0.582130 -0.498931 2.032378 2.128672 2.960233 -1.081023 -1.617121 0.226696 3.079809 -2.123886 2.338225 0.246583 -2.718355 2.793876 -0.592711 -2.951196 1.930034 1.141379 0.141157 -0.635094 -0.875953 -0.969531 0.035133 -2.042513 2.333632 -1.659200 -1.148885 -1.842517 -0.651333 1.684093 -5.011442 -2.254416 2.088285 2.392732 0.138294 -1.347728 0.874128 -0.223334 -2.049213 3.404953 -1.814662 1.935311 -0.175098 -1.203443 3.603723 2.253568 4.524976 0.292390 4.306557 1.181688 -0.163292 0.710438 -0.432715 2.371407 -0.879045 -0.458263 1.637499 4.441577 -0.879015 0.686823 2.025483 1.984174 0.382954 -2.736146 2.504433 -3.889378 -0.817887 2.695133 0.886432 -2.488569 -1.944642 -1.973006 1.169885 -2.362828 -2.451029 -1.275122 0.211489 -3.156728 2.133090 -1.040729 1.979375 1.116072 -2.458977 1.955608 -2.520392 -0.295719 1.822101 4.160627 2.183343 1.720247 0.900252 2.273741 -3.684460 -0.209148 1.294689 2.658559 0.801827 -0.924988 2.788779 -0.529252 1.965120 -1.619240 -0.301010 -4.484301 -0.557219 -0.057013 0.961043 -2.497556 1.734194 2.198466 -0.657832 6.112791 -0.303152 -3.763101 -0.133374 -0.461196 -1.506699 -0.442054 
1198 0.923960 -2.605867 -3.091545 0.249733 1.334554 5.319026 -2.442932 1.889137 6.038693 0.055061 -0.324924 0.343508 0.192348 1.406608 3.291205 2.593990 2.837208 -3.407789 1.392709 -1.797509 -3.510472 -1.414722 2.639293 -1.029945 -0.013762 1.251113 2.208306 -1.652245 -2.130407 2.408069 -2.247344 -0.046547 -3.733569 -0.412349 0.423303 0.506091 1.313841 1.099593 -1.910782 -2.696859 -1.196049 0.483849 1.283580 -0.984188 -1.497896 0.108472 1.870360 1.417349 1.162160 0.325754 2.695167 -2.289856 -1.851516 -6.052294 -1.833628 1.393948 0.606590 1.886079 -4.232856 0.493281 3.512562 1.696788 2.054157 2.370374 1.911334 -0.456996 -0.521046 -3.908982 -0.676417 1.420519 -0.300947 -1.826035 5.432567 5.308479 0.135061 2.202991 -2.300732 3.435616 -1.504097 3.362727 1.530396 -0.666827 3.954026 3.424906 -0.619695 -1.175593 0.192216 -3.629857 -3.510820 3.882197 0.160043 -0.705019 2.837266 1.510046 -1.447811 -3.009506 -1.102838 -1.058727 -1.623988 -0.207598 -2.186220 -1.435764 0.169314 -1.758040 -0.597244 1.930182 0.955330 -0.721569 -6.497215 0.231905 -6.167286 1.293262 -1.198184 2.826015 -4.097206 0.071365 -2.120508 1.601410 0.027495 1.171090 -0.317928 -0.652257 -1.441370 -1.550108 0.580333 0.635690 0.596086 0.627268 
593 -1.862547 1.746549 1.354887 1.798156 0.278206 2.808500 -2.361938 -2.901217 0.322141 0.260895 0.818314 -2.799505 -3.271772 -3.230533 0.995862 -0.233288 -3.107686 0.855222 5.548969 0.829580 -1.255756 0.730746 0.497663 -2.158963 -1.053056 1.371032 1.281739 -0.801491 2.411505 -1.828844 1.971413 0.125936 0.612843 0.028470 0.017090 -1.470708 -3.094556 -1.914341 3.988286 -0.043695 4.293951 0.468096 0.691533 2.695101 1.014286 4.036853 0.028833 -0.670005 1.963174 -2.518818 -2.434101 3.647666 -3.347403 -3.833086 0.708123 4.785750 -2.104170 -1.110048 0.307289 -1.375935 2.662991 0.932178 -1.620654 -2.617166 0.170125 -3.571829 -0.617746 -2.810192 0.938020 -2.455822 -1.019574 1.768057 1.141440 -0.218122 -1.377044 -1.325003 4.047357 0.677975 -1.318472 0.913660 3.025730 1.861341 -0.008782 2.573039 -1.036604 3.155158 -0.368709 2.386106 1.821325 -0.393502 0.765417 2.855654 0.434934 -1.189215 -1.541505 0.917298 -4.176692 3.865051 -0.821050 -1.308405 -0.542535 -1.493649 0.273880 -1.775023 2.639836 -4.390904 -0.716210 -1.267977 2.113540 4.538093 0.436143 4.501181 -1.694045 2.767596 5.892090 -0.647837 -1.521158 0.973845 -2.449722 0.312327 2.088516 -3.610769 1.684052 0.878134 0.812486 0.141347 1.926781 -1.401574 
2571 -2.547932 3.894098 -0.886344 0.831851 -2.735151 1.254442 1.162005 1.639875 3.353594 1.870090 1.605797 -2.733602 2.068992 0.231884 3.248293 1.848477 4.549533 -4.026211 -4.218969 -0.668806 -1.905791 -2.466384 3.459679 -0.540505 1.355114 0.807940 -1.595973 2.222725 -0.480224 -2.852702 4.440836 1.566845 2.658236 1.397015 -2.633620 -4.151515 -1.735154 0.842957 1.751689 -4.036953 -2.565512 -3.124985 -2.080255 0.012823 2.449049 -0.496999 1.358043 0.365509 -0.951722 4.028090 4.350232 2.128686 1.323354 -4.566620 -1.074538 -2.577910 -1.536569 -1.036698 0.502251 -0.675423 -2.502735 -1.079564 -0.457645 2.597427 -0.206167 -1.720896 0.954443 1.455660 -1.061272 2.216222 5.430929 3.127307 -2.900964 2.277180 -4.065299 -0.827329 0.451672 -5.491625 -0.359602 2.324895 -0.765096 0.221365 5.893389 0.264910 0.970857 -2.424787 0.496590 5.088933 2.666891 1.559082 -1.446711 -1.610283 -2.969811 -0.134051 0.127066 -2.441072 0.811005 -3.299141 3.703309 -0.951277 1.640958 2.873387 1.799531 -2.422345 -4.872519 1.415843 1.623158 -0.440164 1.910200 1.361469 -0.192674 2.170558 0.212779 -1.263799 -8.430954 0.102399 -0.233084 -1.052528 1.040107 -0.888894 -1.733881 1.745417 -3.778380 0.281902 4.427948 -2.752907 0.874461 6.582277 
2762 -1.166333 2.740436 -0.576180 -1.972421 -1.283958 -0.291411 1.681627 1.257660 -4.046671 -4.243941 2.939825 -1.971335 -0.447343 1.160654 -0.013876 -0.071565 -2.251236 -3.362573 -0.936874 -3.470688 0.150755 4.247380 0.077602 2.509488 5.109616 1.026260 2.496143 -0.102607 -0.811226 5.068986 1.710567 -0.848057 -1.572613 -0.529426 1.126196 -0.773554 0.481419 -0.536289 -0.115002 -1.363527 0.269026 -1.938898 -1.399568 3.137371 0.127503 -4.178960 0.769143 3.076424 0.504603 2.616213 -3.504606 2.103662 -3.506894 -0.351902 -3.902172 0.226211 4.814118 -0.645959 -4.615142 0.770129 -0.579319 0.329445 -0.387574 2.537167 -0.464697 0.405404 0.252599 3.424354 1.854935 2.243994 2.603090 4.063619 -4.294446 -0.807135 4.034794 3.240528 0.152072 -2.246813 -1.166929 -0.469091 2.534485 -5.187143 0.589244 0.302222 0.698631 -2.019508 1.555813 3.610495 -2.797699 -2.069860 -3.268083 -0.921013 -1.030692 -3.297903 1.362919 -1.419246 1.589083 -2.857066 -0.306076 2.518047 2.879373 0.915020 2.652098 -2.271774 -3.270980 0.122723 4.751483 0.748070 -0.205889 -2.768800 0.951938 -1.031171 2.458904 -5.415369 -0.079006 0.883310 -1.010842 2.895677 -2.069879 5.053797 -0.384790 1.967437 -2.680975 0.301052 -0.650591 -0.570045 -0.068507 -3.735572 
1210 -5.078401 -0.163643 -2.121076 -0.671557 5.023010 -2.997893 3.073458 -0.797232 -1.211727 -2.624557 -1.289261 -1.133461 1.955177 1.381668 -1.483449 1.581610 2.429694 0.103519 0.754786 -3.596843 2.332136 1.082747 -3.971701 0.103025 -3.683455 -1.795955 0.007174 -5.850187 -1.173878 -2.700137 -2.288113 -0.008875 -1.784746 2.886991 -2.632937 -2.577054 -0.910447 1.268342 -0.516960 0.999040 -3.257189 -1.302720 2.819274 -0.722556 0.025916 2.796288 5.050169 -2.065736 0.961963 -0.013733 2.663303 1.807782 0.103850 2.394354 3.180368 -2.074555 0.246361 3.061887 4.813844 1.776723 1.868283 2.180053 1.822941 2.564095 -1.777339 1.004862 -2.841569 0.148443 1.200555 -3.004280 2.552083 1.296309 2.064893 -0.967194 3.486214 1.534676 -3.995665 1.187616 2.276574 -3.620868 1.570918 -3.826597 -1.857347 2.213926 0.137675 1.483690 -1.082851 -1.652161 -0.514311 0.688096 -0.061440 -1.833203 -0.794279 -3.203785 -2.748657 -1.871545 4.917200 0.403165 1.503635 -0.747859 2.672441 3.161949 -1.141775 -0.833720 1.081454 -0.304064 -2.209161 -2.244909 0.169963 -2.213994 4.790101 -1.716806 2.573851 -1.999074 -2.313965 2.095370 -1.680133 -0.018660 -0.579644 -0.900763 0.230284 2.895872 1.729869 -1.604923 -0.884172 -1.996534 -0.118729 0.733566 
608 2.581612 -3.970416 -2.220934 0.907033 -1.478727 0.233583 -0.095950 -1.485122 0.141035 2.792419 2.668110 1.115271 0.683816 -0.193726 0.400560 -3.356745 0.485974 1.768786 0.397345 1.768624 -0.957889 -0.770687 1.689037 2.829253 -0.364083 0.016732 0.410074 -0.355683 -3.215024 1.238239 -1.807324 -6.577129 -1.325563 -1.028462 4.183967 2.466265 0.248679 -0.144891 -2.760308 2.114228 -1.600286 -1.045913 4.577933 -6.500149 1.265474 0.812350 -0.427651 -0.774344 -3.894883 -2.972652 -0.304534 -2.910781 -2.925371 -1.091759 -0.019191 1.254230 0.260288 -1.658713 0.883195 -0.631650 0.575322 2.856796 -0.032643 2.400385 -0.444238 -0.656302 1.005774 -3.525656 -6.676189 -0.366052 -2.173770 -1.371918 5.033008 4.451928 -2.742824 0.557578 -4.438804 -0.889402 0.233796 -0.742985 -0.033479 2.199482 5.847176 -1.968156 1.686083 1.396219 5.725917 0.763324 -1.723801 -2.600792 2.200765 -1.983765 -1.271875 -0.628306 -1.159999 0.270038 -0.187360 4.537434 0.498735 2.771728 -4.806174 1.704645 3.029171 2.631184 -0.821968 3.452313 0.137775 -3.428092 -3.256430 -4.007432 -1.733562 0.000861 -0.470034 1.453888 2.117661 -0.667439 1.447048 -1.122061 -3.594522 0.314955 0.617359 -1.696963 3.287581 2.353580 -2.174302 -4.091829 -1.521735 5.236777 
527 0.045705 -3.286102 0.633075 -3.433108 -2.041585 -0.412457 -1.585917 6.155786 -1.623393 0.814476 -2.836095 0.244549 -0.930258 2.590807 -1.428132 -1.769704 -0.672211 1.479970 -1.351450 -2.099616 2.849193 0.768414 -4.477839 -0.857009 -4.447057 -1.768667 -0.354924 -2.760361 0.696490 2.408385 -2.492080 1.473725 1.614930 1.151733 0.048785 -2.393651 -1.289642 1.054486 0.283338 2.563743 1.253110 -1.126964 0.520675 -0.047517 3.308717 -2.788084 -2.185622 1.119896 4.818694 2.594463 -1.567229 3.104764 0.508580 3.317846 0.005253 -1.106970 0.471659 0.541624 -4.426571 1.017457 2.737841 2.420866 -0.829855 2.202610 -3.891427 4.078714 1.196324 1.972840 -2.003881 2.049460 4.458165 3.382349 0.595139 -3.000392 1.657219 1.263207 -1.885454 -0.231685 0.321763 -3.071782 4.637569 -1.438809 -2.642278 -1.021728 -0.159097 1.267219 3.674684 3.639999 1.216206 -1.265630 0.347102 -1.050392 -0.499763 -0.423840 1.344227 -4.590534 3.137634 0.683813 -0.576974 2.117538 -1.502587 3.320904 -2.261260 -1.899393 -2.898500 4.412219 0.912027 -0.767231 1.676141 0.535984 -0.823046 -4.063941 2.110268 -3.972237 -4.576475 3.154792 0.784099 -1.033321 0.015600 6.169672 -0.940012 0.128717 0.620748 -0.650672 2.387988 -1.080847 -2.411745 -0.304955 
318 -0.007923 5.774243 0.450547 -0.296072 -3.028763 -0.645629 -0.539154 1.378355 -1.293985 -0.485109 3.206085 1.277484 0.956651 -0.463610 2.103790 2.636842 0.742585 -3.153028 0.560932 1.005993 -4.726263 0.678584 -0.187305 1.539490 -2.436158 -0.438309 0.145952 0.724029 -3.611679 -0.780401 2.427833 -0.977224 -0.317062 1.045456 -0.369621 -3.838853 4.973525 1.413107 -4.402063 -2.200813 -0.901614 -3.171995 -2.517754 0.488518 1.078368 1.293598 3.311455 1.274096 -2.426542 -1.183343 -0.596636 0.851843 1.443745 2.902322 -1.497731 0.303907 2.734181 2.198754 -1.718237 0.485564 -1.893658 -1.399753 -0.917608 2.457690 0.234526 -1.171981 -1.716637 1.181262 -0.549573 -1.718439 4.157837 4.533269 -0.455505 1.654290 -0.420133 0.700307 3.571270 -2.860359 -2.625230 -0.259752 -4.777764 -0.714063 2.093290 0.093635 -0.594113 -1.986692 -0.398328 -3.008549 0.874413 -3.981682 1.940258 -2.606817 -2.466280 0.922417 0.346365 -6.676516 3.434857 -6.184476 -0.736962 -4.209689 2.529003 -0.371386 0.636136 -1.017747 -2.722806 1.493276 2.213103 0.012946 -3.384810 0.979566 3.772252 -2.328201 -3.504973 -2.994883 -3.471405 0.816382 2.568223 -1.402055 3.589359 3.346005 0.960231 -4.499944 -5.747681 4.023006 3.106397 0.692836 1.151153 4.856390 
589 1.156489 0.971181 -0.558794 -0.619500 0.287221 2.446409 -0.441788 -3.251971 3.086830 2.007910 -1.294522 -0.538827 2.823111 -1.588297 -1.499930 -0.034230 -3.070432 0.389658 3.742767 -2.251422 1.377380 -0.525607 -2.925339 -1.009282 2.105836 3.941550 2.527821 -2.243637 1.826547 -2.145494 -0.750886 2.681373 -1.497842 2.336485 -0.064797 -1.219994 0.242338 -0.668520 2.569227 2.859169 0.235597 -0.118066 -0.838605 2.401190 0.728358 3.439191 2.355447 3.005531 -3.208322 -0.343953 -2.670403 0.069646 2.903922 -0.896785 3.396571 1.231403 -2.519652 0.294066 -4.311562 -0.677147 -1.247789 -0.519722 -0.771442 -4.967690 0.494512 -2.145837 -2.572408 -0.124378 0.810178 -1.129364 -2.119222 -0.552479 1.108529 2.262595 -1.053354 3.263782 2.342445 0.248120 -1.607298 4.528850 1.275376 -0.278330 0.576240 5.997357 -1.384146 4.242052 -1.593924 0.727240 1.836751 1.188716 3.492935 2.541742 0.902367 0.523907 -1.606119 -0.065491 -2.340122 2.101060 1.088217 -2.879371 -2.625466 -1.137244 2.086205 -2.258652 -0.466872 -2.187558 -3.332809 0.694298 2.171092 0.045271 -0.557576 1.702510 1.296973 0.211374 0.309227 0.562551 2.100970 -1.161886 0.429304 -0.813795 1.163727 -0.670584 0.960994 2.048695 -2.725810 -2.894619 -3.864995 -1.042238 
858 -0.395783 -2.108057 -4.318024 -3.683359 2.978083 0.557754 -4.415596 1.001875 -2.781162 -1.562761 1.677064 -0.685921 -0.927111 -0.800866 0.930372 -1.338594 2.975985 -0.668089 -1.515328 1.817832 2.517660 -2.398372 4.750370 2.077008 -0.676609 5.302612 -1.389370 -2.239869 -4.088447 4.824073 2.991435 0.673732 -1.220758 -5.067783 -2.002512 2.455103 1.188859 -1.279059 2.546822 3.770111 -1.770902 2.087971 -0.853208 1.231758 2.193462 -3.554251 -2.220909 2.943678 -0.671174 1.438255 1.544291 2.296116 1.036607 -2.235950 0.757673 -3.479528 0.502113 -1.989337 -2.783776 -1.325197 0.331769 1.517025 0.974467 -1.329391 0.469440 0.109541 1.777841 -0.432825 -4.646303 0.050770 -0.550243 -0.282854 -2.576085 3.313762 1.614593 -1.395825 -2.751831 1.084609 4.076606 0.010702 -1.956632 -3.794883 -0.941152 0.450965 -0.658889 -3.570065 0.500572 -1.384122 -2.007358 -0.881362 -1.447188 -1.510519 2.309031 -1.376454 3.733659 -2.187318 -3.162207 1.433751 -2.517165 -1.253081 0.117445 -3.249811 -0.094922 4.568970 4.220644 -1.540706 -1.800943 -1.932779 0.244837 0.440660 -1.426940 0.120842 0.823927 3.697095 0.779761 -1.706259 1.352170 0.858646 3.206706 -1.918180 1.631742 -2.337758 -0.518216 -1.877738 4.930595 3.860155 -0.521749 1.250381 
110 0.266543 2.979093 -1.889354 -4.784690 -0.405477 0.705941 2.176505 2.791359 -0.689903 -0.305712 -1.302450 -2.501649 -1.424629 -1.836600 -5.920470 0.848682 -0.664219 0.649599 -1.163863 4.166405 -2.105453 -1.787312 1.854914 2.521556 0.568096 3.625036 2.290269 -1.514036 -0.498565 4.182389 1.988312 -4.254268 2.435478 0.356170 -1.875914 -1.051065 -1.331095 0.536739 2.477032 -1.989288 -2.530458 -0.801387 -0.538411 -3.461812 4.018370 -2.190549 -1.905740 1.398553 0.538480 3.290756 -0.271518 -1.265789 -1.092466 -1.045786 -1.460224 1.407382 3.835999 -0.046800 -2.738819 0.891759 -0.809535 -3.966566 1.616435 1.469949 -2.296267 -1.017038 0.995179 2.071914 -1.762922 -1.801903 -0.266856 -0.999484 -2.569276 0.493749 -1.534225 -4.874710 -0.797556 2.297315 0.284700 2.277950 -1.895182 -1.276046 -0.106451 0.754106 -2.771449 -5.000977 -0.015496 -0.046859 -0.914155 3.881595 -0.001093 0.456989 -1.994065 -2.787587 1.630967 -5.239758 -3.445209 0.646318 -1.129901 0.870817 2.393789 -1.671735 0.784276 2.378703 -1.745040 0.841374 0.615771 -0.339487 -0.592398 1.422558 0.023662 -0.267495 4.286646 -2.526921 -3.621778 6.250668 -5.661331 2.425120 2.535266 -2.681491 1.287588 4.019262 -0.237859 1.172981 -0.274258 2.163548 -0.608294 3.524705 
1197 2.777966 1.815396 -2.130620 3.547422 2.704573 2.169965 0.065220 1.689258 1.737212 4.732016 1.290355 1.219461 0.047593 -2.806250 1.264742 -1.927261 2.810405 2.817174 2.446409 -3.711702 -4.214376 -1.765693 2.197383 1.126363 2.278708 1.870069 -0.642771 -4.091313 0.036688 -3.794152 -4.447606 -0.329711 -1.333483 -0.809430 -2.827318 0.130298 -1.809006 -1.154469 -2.536285 -0.179066 -0.566379 -0.761167 2.683152 0.480836 -0.179701 -0.368948 0.772315 2.967600 -1.459620 0.846322 -4.494529 -1.118605 2.100153 -0.262330 -3.461489 -2.344386 0.938412 1.143913 2.806587 0.687887 -1.442644 2.186995 3.390148 -1.013723 2.675973 2.233361 1.365939 1.132276 -2.051874 0.552721 -0.802045 0.562185 3.307127 4.400391 -2.254304 0.739799 -3.447254 1.948016 -1.995523 -0.165349 -2.372798 -1.952983 6.226774 -0.658989 2.285173 2.189451 2.723867 -3.600467 -3.046069 0.275282 -2.201135 -0.817736 2.767056 -0.954367 -3.098757 -1.541402 -2.011734 1.323878 0.770127 -1.116685 -3.848674 -3.996196 -1.359485 0.447353 -1.172332 0.177823 0.754818 -0.815188 -3.751859 2.614836 -0.419287 1.893183 -2.231908 2.989661 -0.690310 1.266909 0.671683 2.341862 -2.528817 -0.203586 4.349196 0.037349 3.276123 -0.526507 2.726410 5.380638 2.538471 1.661639 
1270 -2.319314 3.095803 -2.157314 1.778151 3.620832 3.268502 1.754013 -4.802122 -2.861676 1.286077 -2.090386 -2.791448 -0.133804 4.256274 -0.088227 2.262817 -1.534956 0.533675 0.562045 -0.790199 0.447384 -0.109914 0.612879 -1.524146 -1.589273 1.816100 2.432174 -1.972471 4.146738 0.194886 1.094626 -0.339442 0.475201 -0.702855 1.685752 -0.625358 -3.547920 1.715145 1.944741 -1.095443 -0.494336 2.591799 -2.331239 2.058008 -0.804170 -0.386482 0.505659 -1.353241 2.540319 -2.720644 -1.895864 -0.193569 0.196764 -0.830158 3.402427 4.242311 0.929904 2.933251 0.044405 1.843781 -0.711233 0.166460 1.079625 -4.487159 -1.240654 1.596150 -0.396287 -1.767909 5.040231 0.843624 -2.251041 -2.458691 2.551188 -2.162407 1.511364 -2.448231 -0.102846 1.754102 -2.249615 1.182029 -4.318118 4.395917 -1.193776 3.195496 3.353628 4.074919 2.188966 1.103363 -1.618376 -1.226911 -0.127038 1.446928 -0.964704 3.666775 -0.004258 0.746808 -0.133813 -2.212938 0.218150 -3.680759 -0.244121 -0.525422 -3.168323 -0.865776 0.896082 -2.807182 2.448249 4.847408 3.966239 0.120353 0.960256 2.768804 -1.953824 5.323321 4.569096 -2.414413 2.853603 -2.644601 -2.816336 -1.535413 -1.289913 -2.021816 1.127267 2.434324 0.135446 1.888519 1.333224 -0.888509 
2396 1.626098 3.443979 0.078881 -3.150802 -2.624714 -0.462045 1.848653 2.169341 1.653333 -2.278454 1.632017 -0.700331 -1.187922 -3.736090 -4.231400 -1.119240 1.174564 -0.986128 -2.019429 0.525622 0.946772 -0.630901 3.947384 2.216316 1.167321 4.048799 2.684376 2.999447 -1.574929 1.565147 3.351828 0.923358 1.396128 -2.257176 -3.883275 -3.858909 0.257553 -1.994243 0.680008 -1.023728 -1.340104 0.319362 -4.143474 -4.260294 2.032120 -2.744042 -3.657265 0.714400 -2.187156 4.353507 2.137044 -0.815964 1.932549 1.759002 0.161558 -1.535676 0.459598 0.880942 -1.538240 0.870254 0.169620 -4.117032 0.365106 2.621367 -4.882041 -0.198399 -2.001984 3.771474 0.882165 4.263807 1.665983 1.933483 0.017923 -4.092656 0.735286 1.356441 2.072600 0.005350 0.130773 3.217277 -3.045765 -2.043662 1.889460 1.883576 -0.111231 -6.173358 2.340947 -0.970018 2.318906 3.044485 2.605627 -2.358035 -1.912889 -2.486280 -0.899610 -2.836190 -1.589141 3.374319 -2.279149 4.438154 2.517499 3.245404 0.422863 3.813318 1.324211 1.891936 3.966947 2.337284 -1.356666 -0.049813 2.716269 -0.896398 0.812548 1.594961 1.612792 -3.108827 -0.958049 1.524883 3.356949 2.098661 1.135427 -2.150251 -0.115909 -2.641715 0.077664 5.210424 3.045063 3.466854 
1617 0.916382 1.214360 1.568524 2.792408 2.255929 -0.971260 -1.357370 -1.234186 -2.680339 -0.411484 0.821553 0.274130 0.115403 -1.957572 -1.310098 -3.312797 -0.933677 1.127380 -4.841402 -0.491713 0.862769 -1.642029 0.905226 0.697524 -3.094866 2.799963 2.585582 2.142103 -0.197776 -3.161675 3.099089 2.984202 2.682636 4.661572 5.521471 5.682206 4.277244 1.765708 0.187227 -3.538494 2.994316 0.955179 -1.166857 1.094603 -1.979229 2.567544 0.124682 0.315557 -2.246011 -4.272058 2.147643 -1.646371 1.152385 -0.644052 1.548397 -0.651133 -1.927636 0.911829 0.475521 -0.169636 -0.555110 0.513412 3.052528 -0.788933 -2.729742 1.980196 -3.900410 -0.587632 3.978232 -1.484225 -2.692403 -2.476371 -2.935901 -3.149709 -0.018298 -2.626354 1.662599 -0.965397 -1.644915 2.535693 1.675561 3.840253 -0.353586 -0.826438 0.713262 2.027275 -2.884747 1.327287 -1.779572 -0.601492 -0.681835 2.491875 1.620221 2.439563 2.140376 3.705714 -5.885404 0.562079 -1.432280 0.650667 1.202311 -0.521608 -3.160132 2.836799 0.060380 -0.908445 -1.356709 -3.312982 2.283574 -1.549736 1.660262 1.091854 -1.915949 3.677227 1.209103 -1.557190 1.618404 1.534488 2.028963 -2.663323 0.055856 0.027202 2.046871 0.488611 -1.912034 -1.401040 -3.786142 -5.894618 
296 -1.008175 -3.242964 2.239866 3.072261 -2.754624 -2.093340 3.236921 0.828760 -1.958115 1.579042 1.965394 1.424091 0.114815 -4.409729 -0.377420 -1.130909 4.236681 -0.607172 0.625943 2.559527 1.210847 2.728771 3.443185 -3.485917 3.279540 -2.075051 0.935299 0.050914 1.345990 1.518534 -3.028714 -0.482532 -0.457251 -0.449417 1.921111 1.461477 2.334640 4.725143 -3.494023 -2.976615 0.454749 4.533342 2.267198 -2.760907 2.208238 -1.443348 -0.247023 2.816529 -1.849775 1.816220 0.472330 -0.133611 0.528019 1.903530 -0.398364 -1.868833 1.533782 -1.885367 3.656043 -2.813020 -2.252903 2.763304 0.941264 -0.390939 3.398880 -1.897869 0.768279 0.293232 -3.205479 1.215587 -2.455774 2.006495 1.322036 3.644547 -3.346806 1.740233 2.893746 0.403658 -1.381976 0.061213 4.737142 -2.311491 2.268990 -0.364938 0.758483 4.464413 -0.716922 -3.452431 0.435680 0.071676 2.061874 -1.240900 1.542081 1.892712 -0.192868 0.247840 -2.521788 -4.186656 3.258686 0.718766 -3.659091 -1.056132 -2.126003 -2.854861 2.114314 0.812955 -3.751925 -2.906692 3.628367 -1.489457 -4.345399 -1.012412 5.047722 4.609407 1.943962 -0.431653 -0.805495 -1.854888 2.890980 4.040093 0.082968 -0.107448 3.161503 0.800875 -4.504962 -1.329692 2.707762 -1.344348 
2997 -2.070885 1.726707 1.126173 -0.738481 2.888317 1.976025 2.641338 -2.877809 -0.146094 0.030053 -0.608662 -5.617636 2.637611 0.453944 -1.840775 3.632972 0.783759 7.116334 0.014601 1.519145 -1.315438 -1.944390 -3.725748 -2.550762 -0.502505 -0.627884 -1.825897 2.108586 1.299155 -2.342039 2.884962 0.385484 -1.352618 4.012929 1.551828 0.248591 1.563411 -1.151180 2.568705 2.538910 1.633085 2.655061 2.108859 -0.805978 2.960884 -1.202555 2.880904 -5.730872 0.582807 -2.803884 -3.365284 -0.660558 4.664787 -3.058492 1.725687 0.458577 -1.050431 0.139918 -0.853923 2.079865 2.473507 -1.002217 -0.049234 -2.428942 -4.704596 -1.293147 -1.190838 0.206126 1.717199 1.493750 -1.119514 -0.147858 -2.515478 -1.416419 0.155419 -0.244869 0.215568 -3.533505 0.049258 -0.050857 -1.549640 1.963223 0.361200 -1.020399 0.248743 0.349946 0.973693 -2.771612 -0.100257 0.884482 -3.855432 1.396681 0.284805 1.795673 0.274585 1.916759 3.716232 -1.572488 -0.260979 -1.189198 -1.815749 1.142509 -2.255763 -1.787617 2.175648 -3.574331 -0.908318 1.476397 1.343886 -1.841404 -1.769068 2.997010 2.865540 4.298777 -0.188045 -2.134372 2.069227 2.170908 -3.715149 0.778842 2.206741 3.108969 0.452319 2.623965 1.434631 -1.635677 -3.335257 -0.695443 
480 2.959441 -3.535723 -2.052208 -4.001225 -1.599414 1.409035 -0.816851 4.566879 3.466481 -1.319224 -0.561278 2.220129 3.622458 -2.189903 -2.536326 -3.106769 0.118593 2.543732 1.935701 -2.499403 -0.714548 1.283673 2.954227 4.376307 0.739360 -2.186730 3.333301 -1.520154 -4.584253 -1.546528 -0.181759 -3.046078 2.364682 -2.074113 0.936500 3.258829 -1.811986 -1.863592 1.350925 -0.724716 -0.655737 2.139356 -1.597599 2.691860 2.502383 -0.816619 -2.384931 3.298014 -1.521779 -1.037488 2.520029 -4.369348 3.171260 0.858597 1.939079 -2.845325 -1.159858 -1.874518 2.639203 -2.302387 0.206636 -0.934672 1.019837 -0.450514 1.106510 -5.330072 1.113088 -4.185651 -0.922276 2.801632 -0.926009 -2.206600 4.731034 1.042038 0.477409 -0.159733 -3.290339 -1.371193 -1.309479 -4.932190 3.165578 -0.260351 1.994993 -2.597618 -0.725042 -0.352535 1.044510 -4.088513 -3.639989 -0.037927 -1.104065 3.269353 -2.222814 1.570827 -0.200724 2.076413 -5.556504 0.954441 3.410353 2.672039 -2.148226 -2.804186 -1.822879 1.211490 -1.168229 -3.109093 -0.763752 1.250762 -6.333414 0.846656 -2.187312 1.626715 0.867826 3.274201 0.320880 1.336325 -0.731672 -1.316309 -1.885662 3.459291 -1.123046 -3.094521 -1.747235 -1.287672 -3.111723 0.290842 3.268497 2.282793 
1240 2.345142 -2.919824 -0.226614 0.176214 2.575491 -0.860343 2.815583 -4.564666 3.849333 -2.921728 -2.123148 -4.607095 0.000011 1.936177 2.110112 0.964158 -1.662711 3.683580 2.129422 -2.319775 2.650928 -0.686957 -2.261666 2.822141 -2.220550 -1.042258 -0.388797 -5.779517 -3.255841 1.006280 -1.434155 3.209615 -0.585512 1.205139 1.028161 -0.638717 -5.595705 -1.756739 -0.073821 0.815097 -4.004881 2.251064 -1.372925 -0.168233 -2.524278 1.488112 0.057450 -4.096491 1.419504 -0.391395 2.054517 -1.138142 2.909492 2.311601 -1.291461 -2.070975 0.514724 1.723225 4.131905 1.911296 0.831037 -1.135831 -0.524104 -1.139297 0.650924 -1.197103 1.788663 1.396582 0.695568 1.264670 1.098632 -4.333113 -1.699236 -0.197233 1.462865 -2.302477 1.923092 -4.602398 0.447196 2.153879 0.114113 -2.314816 -2.012273 -0.683683 -1.210425 -1.145430 -6.909572 -2.862890 0.856641 3.458294 -1.710488 -0.817799 -0.498258 1.266757 1.131480 1.411235 3.808420 -4.931787 4.529459 -1.520261 0.940297 1.479307 -3.040974 1.310897 4.213454 0.901201 -0.371112 5.011657 -0.303548 -1.215922 -2.240051 3.405791 -3.013507 -0.290913 0.016238 -0.074941 1.042859 0.698025 -2.357793 -1.804115 -0.851860 -0.013198 -1.255494 -0.689700 3.178975 -5.575078 -2.874044 -3.991114 
356 -4.057662 -0.676673 1.504649 -0.407256 -2.426756 -3.458854 -0.483961 -2.051721 0.198535 -0.348704 3.346036 0.643524 -1.659183 2.180924 2.607493 3.768515 -1.102757 0.125480 0.495898 1.145113 0.362330 1.064168 0.744867 2.075971 3.757729 -5.955997 0.587794 0.080801 1.702837 0.450023 3.019345 3.221753 0.666254 0.748854 0.673288 -2.342593 2.199938 2.207618 -2.584137 0.993885 0.173846 -4.388063 0.039204 1.194206 -0.275312 1.135674 1.817693 -0.695362 5.467788 -1.093894 -1.975003 -1.474305 2.158121 1.926389 1.205963 -3.650596 3.063710 2.412669 0.496413 -2.593027 0.636610 -1.080850 2.789751 0.994136 -0.671120 0.239236 0.080881 -0.276595 -1.636573 -1.372028 3.339833 4.717292 -1.352970 1.389760 2.795597 1.712082 -0.455712 1.653329 -4.740019 -0.103068 0.906778 -3.927572 2.727817 -3.277390 -2.945815 -1.173971 4.210149 1.198583 -1.931541 -1.848380 2.048506 -1.718448 -1.570795 -0.978806 4.371667 -0.941679 2.712342 -1.639138 -4.136582 0.231458 1.295297 3.614175 3.387923 -3.647281 1.103816 -1.417819 1.090129 -0.098915 1.703282 -4.243903 0.924361 -1.602169 -0.758096 -0.208034 -3.295880 1.959719 -1.731926 2.229794 -1.308338 -1.703218 -3.304209 -0.691201 -2.991133 -3.196559 2.759226 -0.180661 1.081632 -0.796084 
1265 -2.666424 3.794973 -1.898759 1.695024 0.082535 1.608214 0.269285 -2.707449 -2.344240 -1.220990 -3.062641 0.115337 2.235794 1.254731 -0.475687 3.019195 -0.086005 5.417776 3.213131 1.323920 -3.938896 -0.031774 -2.245416 -2.144050 -1.455117 1.134006 1.492510 -1.808082 -2.017250 -3.344328 -2.990194 6.785212 1.002814 0.421255 2.939237 -0.774088 -4.528281 1.618129 7.206961 0.849517 -2.587749 1.071819 -1.790618 0.102708 -0.740560 -0.142550 3.285932 -3.036522 3.550698 1.567835 -1.777178 3.499357 3.934497 -0.695292 0.732103 2.724799 -2.696900 1.897973 -0.114515 -2.842065 1.458560 1.539156 0.796690 -2.645015 -4.647658 1.993820 -2.367383 -3.139535 -0.330357 -0.909519 -4.522320 0.396378 0.900094 0.263456 0.575717 0.226281 1.602475 0.376259 -0.805077 3.222732 0.307871 -0.403525 0.519747 -1.681697 0.772008 0.657610 -0.121756 -2.954098 2.117082 0.745659 -0.104129 2.622176 5.591112 2.687582 -0.996955 2.898817 0.457887 -4.401303 1.193618 2.100640 -0.185652 -0.210110 -1.787351 -3.347547 -0.814868 -3.571230 1.205214 2.489944 1.196545 -0.035780 -2.665868 -1.256696 2.326570 -0.580244 2.809684 -2.852134 1.090986 1.150644 -2.560775 1.446084 -1.195265 -2.354275 -0.561705 3.052347 -1.894806 1.979495 -2.507719 0.549354 
1 4.216019 3.255382 3.346054 -1.780819 3.059175 2.114491 -2.035651 -4.626290 1.840645 2.623064 -3.801589 -2.690900 -2.925847 -0.270616 -0.454494 1.940861 -1.131481 -0.241705 3.516709 -2.328662 0.937716 1.300412 1.170660 0.424816 3.204799 -2.382238 0.938292 0.828690 0.537438 0.817553 -0.345338 2.381629 -0.534917 1.176230 -1.130590 0.747825 0.773741 1.648943 1.845183 0.486103 -1.193831 -0.497641 1.929090 0.127958 -0.908210 1.812415 2.788631 -1.319695 3.660674 -1.452343 -2.120448 1.941007 0.905028 -1.859615 -0.220582 0.627215 -5.071924 0.697178 -2.828230 -1.613752 1.150384 1.167411 -0.388988 -0.328153 0.169133 -0.913277 0.228312 -1.555542 -1.515430 0.907120 -0.842219 1.401478 2.140264 -0.620452 -1.952778 -0.629484 1.906921 -0.434059 -2.428598 3.736733 0.416086 3.250618 1.985946 0.128754 1.052322 -0.004889 2.814091 1.051705 3.367085 -2.462273 1.322216 5.406987 0.386853 -0.949429 -4.208861 -1.242940 0.776340 -0.919679 -1.657512 -2.358860 -5.244359 -2.678869 -0.644304 0.773536 -0.526394 0.064603 -0.484701 1.316885 2.935295 3.099211 -1.724990 3.791489 1.757890 -2.531653 1.809130 -2.633389 -0.890133 1.046301 0.087152 -2.065922 -0.225934 -0.845947 4.115343 1.044715 -2.271175 0.050288 2.449508 -2.686375 
1580 -0.336570 1.417814 -1.649780 -2.843728 -3.071504 0.334992 -2.282426 1.683705 3.418739 0.290000 -0.047499 1.228661 0.365266 0.191333 3.173884 2.390132 0.211453 -1.429623 -3.246720 2.076751 -0.047385 -5.406486 5.393712 1.811103 1.904817 -3.519807 0.442810 3.440647 4.235945 -0.181442 1.579543 -3.019539 1.058187 -1.353576 -5.871543 -0.710391 -3.245384 -1.712860 -0.546204 -0.257890 1.844284 -0.749343 -2.232454 -3.774914 -1.809832 -0.120697 -0.730351 -1.527920 -2.343115 2.476060 1.390322 -1.914526 -0.228181 0.514408 -2.391981 5.631853 -0.434008 2.093460 -0.933956 1.259495 -1.164763 0.176708 -3.160637 1.933539 0.665549 3.003932 -1.760854 3.607043 0.594932 -2.977340 1.294396 0.176859 2.083524 0.588342 2.126632 -0.209927 1.193624 -0.225590 3.516827 0.831240 -3.307405 -4.206338 4.098422 0.342067 1.941265 -3.784692 -1.123945 1.266524 3.206842 4.701705 2.263463 -0.636191 -0.704298 -0.978921 2.642007 -2.779190 -0.576589 -4.543213 -2.063762 -3.602830 1.654341 -3.518154 2.520674 1.834271 -2.651963 -1.955946 -0.452235 -0.139407 -1.181859 2.825001 -0.826775 3.105546 4.289093 1.129434 -2.326429 4.293298 1.197630 2.000632 3.070582 -0.711338 2.395058 -1.445307 -1.088255 -3.747239 4.783441 -1.348915 -0.072250 4.107042 
1097 0.461389 -3.194189 -1.781784 2.239426 -4.166078 -2.198522 -1.700930 1.132641 1.025297 -5.837337 -0.872297 -0.338563 0.280367 2.253154 0.952370 0.827499 -2.058878 -0.631316 1.209589 -0.174293 1.207433 -3.551125 -0.752338 0.394232 -3.436931 -3.717290 -1.498123 -1.992182 1.634880 2.539042 -2.120958 -2.627659 0.299339 -2.147281 4.240062 -1.341852 -1.533313 0.928208 -0.939951 -0.528480 -4.362236 -0.853821 1.439468 2.546360 -2.906018 -1.278726 -0.555255 -1.592784 0.127842 -0.282912 -0.556117 -0.112311 0.826940 4.384698 0.972948 1.764030 -1.891894 1.345698 0.768569 -0.488020 2.127733 0.882583 -1.715978 1.059166 -0.699959 -3.228212 1.452041 2.621641 2.259823 2.913326 0.784018 -2.552396 -0.892964 -4.471348 3.148116 -0.893700 -0.033137 -0.327442 -0.059479 -0.688810 1.199661 -2.172710 1.527415 0.622801 -1.178934 -1.408715 3.092329 0.008896 0.902382 -0.874319 -4.054276 0.258504 1.444867 0.712720 0.177425 -2.509200 1.211192 5.707947 2.591980 0.570058 1.696723 0.284802 2.692410 2.221751 2.254310 0.753103 -1.068308 -0.337924 -2.113085 1.663683 -0.818135 -2.028953 0.181490 -4.453880 0.034289 -1.050433 0.984621 -1.963326 -1.007775 -0.370492 2.575282 5.789268 -1.139946 -1.724766 -2.988865 -0.395930 0.842785 1.035274 
1214 -2.839096 -2.165429 0.307650 2.610059 3.725979 0.351477 1.333622 -2.400055 -0.119199 -1.311786 -2.997958 -2.219201 1.596145 1.496056 3.043435 0.493409 2.098127 0.690845 -1.519647 -0.351261 -3.209929 -0.841613 -3.771046 2.839052 -2.884955 -1.943204 -0.480836 -4.706671 2.013946 -0.857465 -2.996828 1.350284 -1.082434 -0.006775 -3.664083 4.802778 -3.031234 3.248885 -0.310219 2.168873 -2.540024 0.080694 -1.602658 -0.349049 -0.409298 2.362478 3.139304 -5.910630 2.653364 1.580197 1.116445 -0.467899 -0.629595 -1.430716 4.195429 -0.217031 -0.789167 -1.990815 2.196978 0.266152 -0.295905 3.583173 -3.239726 1.016050 -2.238469 -0.132592 0.001942 0.339033 1.566064 4.675180 3.464289 0.926300 1.419003 0.718132 1.028191 -0.553285 -0.175785 2.738989 8.531559 -5.168938 -0.079927 -0.671699 -2.570679 -2.621721 3.717932 0.345823 0.184762 0.350329 0.656060 1.997669 0.801852 0.916171 -1.104401 1.753107 2.338648 -0.421290 4.819650 5.772273 2.954520 -1.725349 0.860688 3.482815 -3.785533 0.757253 1.714427 -3.028941 4.812372 -0.841788 -1.053842 -3.188750 2.797328 -2.528092 2.376822 -3.591375 -3.707240 -0.534273 1.160357 -0.903238 2.570593 -1.719422 -1.097067 2.479632 1.498503 1.734467 0.209586 -2.959915 2.875198 -1.675066 
457 -2.195528 1.248914 -3.826128 4.750739 -1.109309 2.545985 -0.138834 3.290664 -0.889419 -3.054766 -1.455734 0.673685 3.684072 -0.147119 -1.791733 -5.634170 1.429628 -1.158360 -0.826391 -2.193320 1.158934 -0.628189 0.427756 2.326530 -2.863369 -1.425691 0.900130 2.998939 -3.067339 0.532138 0.072652 -4.440941 2.189398 -2.832042 2.738376 -1.012314 -0.250916 -0.877090 -2.364905 0.495530 2.062500 -0.907071 4.340775 -5.986594 -2.906350 0.018636 -0.437689 4.365197 -1.221025 -1.264716 2.957155 -3.450270 -0.462994 1.608234 1.257596 -0.523122 1.769225 -2.766690 -0.454474 -0.415983 -1.829673 -0.450212 -1.335969 -4.770480 1.013710 -1.186325 3.867356 -4.896731 -4.621925 2.800092 -2.193012 -0.342979 1.314534 0.568474 0.530768 0.791933 -4.167190 -2.913320 0.932329 -0.391981 -1.497225 1.395617 -0.012729 -2.622585 -1.301970 -0.547400 0.982004 -3.871810 -5.779962 1.869773 0.156376 1.133502 -0.049994 3.140712 -5.306617 0.873330 -1.592372 -1.579394 -1.375882 0.528750 -4.736171 -3.324492 1.900752 -0.609945 3.542229 -4.202292 -0.305526 -0.130690 5.764052 -3.975959 1.363712 0.794957 4.237505 1.252675 0.862622 6.462056 -0.161051 -0.186762 2.323106 1.107617 -1.726066 -3.081104 -1.347550 0.209458 -2.376291 -0.260051 4.223767 -4.855227 
50 -6.770101 1.465022 -0.036495 2.261210 -1.436713 -1.732403 1.149472 0.026640 -1.879372 1.285977 -1.515595 -1.948733 -0.662976 1.032663 2.863645 1.614236 0.722584 1.729697 0.146195 -1.612933 3.545537 -0.318929 -5.195774 -1.175596 1.634684 -3.752939 -2.043448 0.582215 -0.116013 4.865496 0.780277 2.146078 -2.103760 1.374217 -1.534111 -0.331355 0.421514 -2.219020 -0.881927 1.716219 0.670407 -0.384638 2.088466 -0.174108 2.478494 -0.717185 1.288275 1.584558 2.564579 0.942923 -1.386038 2.666879 -1.038578 3.495225 5.682209 -2.741786 2.729966 -1.206428 -0.481972 3.073065 0.610266 2.580559 -3.701757 3.393030 -2.471969 3.929243 0.712202 -0.775625 1.142009 -1.760623 6.690605 -1.429078 0.084121 1.328545 -0.581030 1.855074 -1.712616 0.914185 -2.250043 -4.504711 3.246080 3.224140 2.239823 -3.743736 1.222825 4.155811 2.160400 -2.267415 -1.477141 2.646147 3.575341 -4.290340 0.803777 0.770253 5.002016 -0.250768 4.173754 -0.682709 -3.370975 1.341024 2.023481 -1.790402 -2.764998 -1.101285 3.265856 0.995770 0.500143 1.495017 0.686112 -1.058763 1.431837 -5.519624 0.056548 -4.734632 -4.008962 0.505334 -2.071043 0.576327 -2.079036 2.130427 -3.778750 -1.297479 1.544349 -4.271828 0.954994 -2.537369 -2.563165 1.711687 
2716 5.916353 3.313224 -1.222223 -1.653761 -4.112535 -2.686691 -2.707932 1.434941 1.633106 -2.441676 1.825853 1.258183 3.154343 3.376214 -2.213520 0.928315 0.374677 -0.680623 1.477467 -1.186828 -2.002556 0.403841 -1.771211 -0.609770 1.753679 1.319311 -1.543944 4.761448 -1.801672 2.812000 1.999692 -0.384469 -4.720119 3.445692 -3.007183 -0.305758 -0.676535 -2.586628 1.596194 -2.712403 -0.338851 1.148287 -1.277011 0.711533 2.510756 -1.628194 -4.288526 -0.425718 -3.070560 0.636961 1.307783 2.351974 1.752376 -2.908289 0.230058 0.368088 3.644560 1.574994 -1.132116 0.816908 -3.715012 -3.235157 1.616457 -0.115866 -0.154899 4.886200 1.301226 2.705612 -0.858878 3.567867 7.366173 1.588492 -3.040210 -0.324411 -1.214964 -1.075245 2.853601 -3.874516 -1.109658 0.014093 -0.498734 -4.884269 -0.946174 2.404108 0.624163 -3.117925 3.037319 2.660163 3.041803 -0.219696 0.938830 -2.829664 -1.866398 -4.259547 1.359716 -6.797266 0.976284 1.919333 5.141869 2.651669 -0.633774 -2.741379 3.764397 0.714095 -0.809789 -2.014110 0.227456 -1.431328 1.210599 -3.262938 1.664012 0.371017 -1.162911 -1.878490 0.221141 0.419552 -1.493585 -2.590138 1.799376 -2.300360 -1.824450 -1.505246 -0.739151 4.406421 1.633748 2.922002 -1.266597 2.980378 
1193 5.599154 2.329691 -1.928841 1.124913 1.898001 5.386017 0.810747 2.223995 2.549308 2.860177 -0.147823 2.257456 -0.288912 -3.445948 0.666122 -3.383345 1.199077 -0.202148 -1.319824 -1.427410 -2.817127 -1.354742 1.329318 -2.429882 -0.524987 0.246816 0.448932 -2.828357 1.735041 -1.132010 -0.778953 0.172219 0.209323 0.432902 1.715024 0.095633 -2.166195 -2.603702 -0.051659 0.013958 -1.272487 -2.587313 -1.174091 1.023735 -0.516821 -0.596366 0.414486 -3.141723 -2.492960 -0.575322 0.440423 -0.264706 -2.610430 -3.431243 -0.816679 -1.132804 -1.803440 -4.676214 -0.106751 0.578252 -4.013704 2.801557 -0.601660 -1.324190 4.841727 -2.514139 2.400417 -0.222712 -2.976112 2.344346 -1.979338 -4.629291 0.646754 4.152503 2.127441 1.983431 -3.815712 -0.262392 -1.523888 1.991382 0.325419 -0.928581 5.039713 2.581070 0.572996 1.356446 2.256023 -4.048911 -1.093506 -0.064497 0.257067 -1.803288 -5.337800 1.353925 0.586040 -1.161540 -1.454738 -0.415454 -3.221883 -0.176626 -3.775123 -2.786453 0.166412 0.044045 -0.588952 2.196831 -3.413717 -4.622842 -5.553578 1.857543 -4.457786 -4.347786 -0.311122 3.943776 0.380766 0.224277 0.663507 2.627463 -1.263420 2.678115 0.776239 1.151641 1.884184 0.293012 0.130257 3.790228 0.229040 1.752670 
3578 -2.478452 0.059284 -0.959584 -1.320969 -2.786541 -6.864026 1.365024 -0.213987 1.244238 0.160841 -2.298485 -1.444545 -1.244419 0.507499 1.131629 1.388489 -3.556880 1.310808 0.597647 -1.996881 1.149866 -1.772036 -0.517398 -3.422294 2.757444 -2.739611 2.336953 2.602346 -1.237380 -0.131428 0.097834 1.861510 0.725970 1.467189 -3.014617 1.202976 -3.226043 -0.625177 0.949652 -0.234011 -0.777906 -0.626968 0.491462 -2.034075 1.111156 -2.118469 4.138622 1.092127 3.616034 2.053502 -2.886737 0.320558 1.162743 2.564003 1.310580 -0.901520 2.787492 1.700983 0.065058 0.192410 1.974402 2.087993 -3.276971 3.858903 -1.848494 -0.456657 -1.550533 -2.839007 -1.076109 0.000954 2.017732 3.370724 1.130179 1.530936 6.443821 0.774167 0.422162 -1.777754 3.205546 -4.042649 3.087407 -0.709259 1.952713 0.358894 -0.816294 1.328858 -0.526447 2.247710 -1.688441 -3.510757 -0.575776 -2.809477 -5.015550 -0.125746 -0.312200 0.439680 5.580513 -3.284752 -4.410278 -2.974877 2.365626 1.432385 -2.973514 -3.575595 -0.673883 0.680396 1.648768 -3.132885 -1.859493 -4.031697 2.952418 -4.281873 -1.746143 0.661074 0.850768 1.876274 1.115828 0.216025 -0.823236 2.345731 -5.105511 -1.933739 -1.790585 0.241412 0.986802 -3.735888 -0.300952 -0.025734 
541 -2.052519 -3.517133 0.729584 -0.447909 2.613631 -2.003675 -0.507113 4.537364 1.441987 -5.593989 -0.334145 -2.853822 1.266132 -1.069761 3.830062 -2.425570 -2.057438 -1.504725 -0.810765 -2.126341 1.805807 0.558296 -5.107789 -2.633526 0.692678 -3.629474 -0.771875 -0.388111 -0.877775 4.016440 -1.982695 -1.319162 -3.414810 -1.873907 -1.821499 -0.566151 0.555243 -0.942387 -1.165256 -0.213183 -1.823161 -2.082477 0.244574 -0.551432 3.101108 -0.487411 1.978872 -5.406590 -2.930674 -1.191606 -1.392131 -0.585332 -2.257126 1.331396 3.328732 1.238857 4.895063 -0.272629 2.049696 -0.552642 -2.125192 -3.849282 -0.520602 -2.803777 1.138020 -0.463487 0.262731 2.620580 0.045925 0.185418 0.013456 0.744690 3.678868 -3.899345 6.755823 -2.522314 -2.659131 4.621425 3.112105 -0.437780 3.446619 0.852346 -4.416342 -0.617679 0.600347 -1.584994 0.078328 1.944029 2.635947 -1.658367 -2.317744 0.556917 2.132597 2.804277 -2.659206 -1.634977 3.636238 2.212475 3.811531 3.926098 -1.087118 0.907720 1.669675 3.011724 -0.977237 0.585728 -0.747328 -0.843134 1.841233 1.324101 1.484289 -4.326661 0.385765 -1.995239 -1.798381 -2.023370 0.688693 0.411665 1.543827 0.346898 4.279174 3.544111 -2.298424 -3.133209 0.660756 -3.391421 -2.025099 1.342951 
1221 -0.311585 1.524995 0.835195 -0.137274 2.889917 -0.640769 2.494526 0.277343 -2.018284 -3.456336 -4.391785 -1.776922 -1.063190 3.114407 2.920865 0.185449 -1.261146 1.182021 1.608623 3.514771 3.566626 2.883544 -2.243902 -2.202687 -3.732775 -1.384681 2.251906 -2.918189 -2.177142 3.242449 2.062039 -0.055403 -0.632031 -0.426392 -2.054753 1.787495 -0.727968 1.835191 -2.746652 3.102971 -4.244987 -1.560376 2.256377 1.244388 1.101836 1.132919 -0.014066 -5.698213 3.407075 0.419573 4.159667 -0.639743 1.931191 0.850411 2.789362 0.963871 2.474269 -1.939658 7.855139 0.642493 0.221353 -1.087981 -2.852954 0.339125 -3.153374 1.693723 1.600447 0.467813 0.175620 0.202960 1.015733 -0.932644 -1.013535 -1.036278 2.094709 1.073734 -2.239191 0.034489 0.717279 -1.098849 -1.340947 0.484107 -0.429935 0.766014 2.316367 1.605672 -1.104314 -1.764708 1.278728 -2.287660 -2.326941 5.202796 0.060837 0.074319 -3.883323 -0.794350 1.721140 -0.570291 1.618219 4.140019 4.828905 -1.184958 -1.339236 -4.689692 1.541641 -1.818912 -0.644335 -0.921731 -3.696476 1.866368 1.340490 0.884116 -0.632717 -0.236391 -4.987726 0.121043 0.849381 -1.491112 -0.923941 1.299577 0.454520 4.694801 1.198794 -3.542063 2.003557 -3.118843 -0.402706 -0.514376 
912 0.589775 -4.229673 -2.474161 -0.303878 -1.677677 0.505927 -1.853140 -0.893827 -1.291743 6.818471 2.010769 -1.105285 -2.981988 0.570760 1.125125 -0.861020 -1.467401 -3.283180 1.716044 -0.643965 -0.518399 1.018600 0.778792 -0.127054 -3.440554 2.228079 0.742504 1.533233 3.961095 -3.707855 2.491503 4.570783 2.708277 2.653445 2.266470 0.411241 0.143668 -1.640887 0.668836 1.496712 0.277613 -0.151929 4.713431 1.298451 -1.314244 -1.334960 1.056717 3.503710 2.700326 -4.426191 1.435523 -0.868475 -1.413134 -4.610165 1.658050 -0.369180 -3.997327 -0.597637 0.547360 -0.322580 -1.629503 -1.396578 -0.101315 -0.787010 3.379137 -0.241830 -2.997524 -3.040771 1.926702 0.599864 -2.945212 -6.005285 -3.304020 2.619861 -1.665686 -1.586681 1.271573 -0.237664 -0.589424 4.556788 -0.844815 1.783137 -6.792520 -0.610327 0.223424 -1.080047 1.662529 1.255457 3.469487 -2.627101 -0.696338 3.198050 0.380878 -1.944186 -0.649968 1.549556 -2.855672 2.408427 -0.832816 -0.239327 0.493124 0.532552 0.541949 -1.972380 0.456692 -1.647166 2.487063 -1.814370 6.163061 2.601694 0.139076 2.819369 2.397501 -1.780717 1.308138 -0.920640 0.704344 -2.218300 -3.759183 -1.277181 3.093978 -0.507483 0.788348 -2.015293 0.358334 -1.180738 0.164717 1.358029 
1200 -6.202602 1.529587 -3.422207 -2.128996 -0.863068 -2.469823 -3.074279 -0.453743 -3.883308 -3.414172 -1.198995 -0.732891 -2.061970 -0.417923 -2.068625 2.848551 -0.929384 0.134046 0.721944 -0.425540 4.145581 -0.500162 -5.327606 -2.147421 -2.929474 -2.602667 2.261571 -1.314027 0.876238 -0.926307 -4.087810 2.490312 -3.222896 5.496063 2.574497 2.760169 0.277091 1.565556 -0.399421 0.491868 -1.918475 -4.355332 -2.414503 0.588317 -1.181571 -1.608309 -2.282872 -2.323330 -1.770565 1.629970 -2.215880 0.125709 -1.058307 4.041130 1.769693 -2.005781 0.304968 3.023380 0.325576 1.564250 -1.738719 -0.231526 -0.142576 2.884942 4.294735 3.003148 0.830053 1.475462 3.066880 -0.924351 3.123336 3.369344 2.738715 2.932631 -0.344159 -0.490405 -5.883843 2.202704 -0.563612 -5.985878 4.183807 0.778865 -1.110170 1.645801 0.454522 0.644689 1.373721 2.087807 1.571543 -3.084035 2.239024 -1.030016 -2.969720 -1.530613 0.175542 2.143300 0.811832 -4.562013 1.059511 1.949901 1.405555 0.048168 -4.137511 -1.708811 0.535959 -0.320671 -2.093541 -3.378204 1.794882 -0.790795 0.274236 2.181011 0.693482 -2.646920 -4.688870 -0.964892 -1.477760 1.732732 -0.143497 -0.847920 -8.575408 2.442833 -0.508702 -2.633226 4.754751 0.131111 -0.010658 1.416679 
1259 -2.274993 -0.436792 1.422026 2.838333 -2.211125 4.070549 -0.945903 -2.813808 -0.457748 1.473003 1.696666 -3.583650 2.036994 -2.015681 -0.620555 1.409635 1.628736 0.892612 3.123942 0.182885 -0.328719 1.725639 -2.191102 -3.406089 -1.007245 0.652665 1.196623 -0.456968 2.660264 -0.342336 -3.193916 3.235044 -1.859844 0.514435 1.902221 2.136951 -2.299629 -1.754469 3.656663 -0.650202 -0.728386 -0.390533 -2.627415 -1.154748 -3.139536 -0.492757 0.299877 -6.365699 3.170841 0.276421 -3.145093 0.941145 2.240997 -2.390997 3.303176 -1.561875 0.059610 -1.170324 -0.835716 1.282993 -1.050840 0.598113 -0.174617 0.888087 0.216907 0.374543 -2.916413 -2.511552 -0.705142 -0.690245 0.353646 0.507820 -1.270055 -0.596714 0.286194 -1.612970 3.477813 0.896134 -1.254681 3.813696 -3.821305 0.758910 -1.206441 -0.049921 2.398504 2.940226 -0.514046 -4.242141 -3.687970 -0.678642 -2.484704 3.736601 0.811637 0.067271 -0.197852 1.483023 4.028408 -1.491378 0.839366 -1.209911 0.849532 -1.366433 -2.287194 2.155966 3.201812 -2.708558 -3.437152 1.993197 -1.782676 -1.967973 -1.312505 4.519619 1.861503 -0.483461 -2.112113 -0.488206 1.167774 2.036847 -0.422032 2.438095 -0.542274 -0.977605 -1.398683 2.457998 -3.712447 -0.483709 -4.628158 -2.434522 
919 -1.305624 1.349953 -2.358241 -2.084130 3.567454 -0.077870 2.351773 -1.222207 0.206985 1.254261 0.445280 4.159718 -5.217434 -1.235582 0.354973 -5.479917 -0.590814 -2.743176 2.119958 -0.345855 -1.563076 1.083913 5.037734 -0.431104 -2.478056 1.892069 0.970919 4.558244 0.403561 -4.134640 0.462686 2.546004 -2.378665 4.653638 0.346939 1.182850 0.528163 3.048767 -1.576105 0.037661 0.203661 1.779818 2.217450 0.100062 -1.999845 1.186193 -0.972177 3.898702 1.006209 -0.783892 1.997349 1.122736 -3.207187 -0.597612 -0.327837 2.787192 -5.037294 0.172166 -0.214825 1.689892 1.331614 0.768227 1.814860 1.252700 2.761621 -1.184363 -3.178144 -0.207566 -0.045104 -0.156285 -2.209835 -1.035605 1.190259 3.985699 1.097191 -0.165353 3.993671 -0.349251 -1.456118 0.044489 1.010737 0.989085 -6.197805 -1.523365 -1.540855 0.456024 -0.376085 1.214289 1.225187 -0.454535 3.372077 1.412207 2.780468 0.170513 -1.085230 3.649650 -0.245960 3.169279 0.043764 -4.437328 1.634651 3.018998 5.262580 1.434952 6.806902 -1.253869 -2.325906 3.417927 4.115221 1.097183 0.091119 -2.615955 -1.764758 -0.542406 1.859743 0.022895 4.370716 -0.230231 -0.684897 -1.579332 4.207121 1.333466 -2.026732 1.075394 0.465605 4.592981 -1.221077 -3.685661 
1213 -0.061512 -1.847282 -1.596123 0.144825 4.761320 -3.449639 4.208251 2.118274 -0.737613 -1.245971 -3.660695 -1.553213 1.726631 -0.730961 4.504103 1.757038 0.806610 4.193849 2.260269 -1.372575 3.548758 -3.490279 0.975015 -0.057455 -3.418463 -0.882949 -0.183855 -3.653605 2.480144 0.535528 -0.593965 -0.422506 -6.321084 3.169154 1.613116 -0.035559 1.157116 -3.508613 -1.491202 2.492632 -1.107054 -1.026635 3.445638 -0.426660 1.118267 0.026774 3.455084 -3.201511 -0.140190 1.359789 -1.000844 -0.899839 1.743329 1.083490 1.206601 -1.690392 -1.747471 -0.333238 4.578906 0.216298 1.081856 3.400867 -3.331372 2.040590 0.099522 2.138183 1.582852 2.207318 0.627504 -0.229198 2.521745 2.071617 1.766065 -4.211544 3.614026 -2.914757 1.476100 4.021635 3.527963 -3.578497 -0.332727 0.600801 -2.954651 1.385377 1.457671 -3.078469 -0.361419 -0.986832 0.701118 -3.590876 1.906011 -0.039115 0.037567 -1.328871 1.083477 0.644961 5.503013 -1.123491 1.906407 3.945391 -1.261565 0.113268 -0.755620 -0.379958 -1.445014 -1.495282 0.399313 -2.543028 -1.865042 0.197308 2.020470 -0.017137 2.343412 -2.901637 0.015018 3.042367 4.672029 1.246625 -2.172316 -1.845703 -5.245693 -1.045828 -3.051349 -0.904177 1.876817 -3.140124 0.546094 -2.857170 
1136 1.399340 -4.178491 -2.610921 3.579419 0.273527 1.747558 3.919871 -1.128264 0.705069 0.468898 3.669926 4.536147 1.267934 -3.224922 -1.785830 -5.939852 -2.597396 -2.026440 1.571186 0.185232 0.327211 2.454720 1.556073 -1.523751 -1.895567 -1.925105 1.783761 0.627981 -0.978885 1.989245 -4.644440 -2.740491 1.342472 0.001220 -0.021028 1.727839 3.656573 2.766644 -6.341035 -0.550547 0.334458 1.693041 3.104982 -0.233502 4.190225 3.071674 -1.123161 -1.818362 -2.435245 -2.316502 1.666587 0.101802 -0.337084 0.690293 -0.021041 0.827101 -1.435463 -0.783668 -0.579238 -4.114174 -1.841985 1.664098 2.378102 0.902186 -0.457277 -2.565100 -0.731636 0.990346 -3.774930 -1.365245 -2.962929 1.517364 0.962787 2.066762 -0.463709 0.522357 -3.970620 4.426332 2.793687 -4.128799 -2.283473 3.248698 2.631046 0.893565 5.794484 2.876459 3.345577 -2.025126 1.780783 1.811883 -1.040557 -0.827861 -3.950472 1.328740 -2.390243 -0.390370 1.935496 -0.124072 -0.942434 0.702097 0.105372 -2.832353 -1.988318 2.461562 -2.725923 -0.590119 -0.769090 0.521997 0.489278 -0.649367 -6.184538 1.439049 0.971701 -2.037294 3.048006 2.505116 1.084981 -2.118593 -0.361550 -0.049487 -4.485033 1.383731 1.664643 -1.921084 -2.677785 -0.310261 3.725331 3.661903 
1036 -1.045305 -0.630309 1.406198 -1.567978 0.065108 0.980997 -1.514534 1.629511 1.213103 -1.964974 4.919562 0.525167 -1.335300 -1.805358 1.035163 0.230302 -3.871527 -0.000566 -2.165345 -1.109418 6.831801 0.086046 0.251903 -1.014165 5.400881 -1.131631 -0.618008 2.346212 -0.076089 3.748617 -1.972274 1.394451 -0.650104 0.801157 -0.697090 -3.509168 -2.345344 0.843037 -0.823312 -3.911751 0.177862 -3.580111 -2.773512 0.589318 0.464566 -0.862568 0.363259 4.008387 4.449172 5.839145 -0.218319 0.499362 0.290750 1.639930 3.994360 -0.080083 5.353322 3.611080 -3.275428 4.940305 2.281977 2.287756 0.690703 -1.815444 -1.303231 1.260862 0.675312 3.704058 -0.771382 1.535162 2.272582 -1.450714 -0.966982 -0.773788 0.689718 4.508497 -3.534487 -3.101113 -2.472050 -4.909307 -0.849286 -3.232892 -3.400280 0.640465 3.173362 0.059788 2.958335 1.969332 2.261618 -5.097829 -2.390514 -2.639403 -2.638983 -0.271583 5.046886 0.210261 -2.468473 2.834475 -2.653165 -0.025995 -0.285854 -2.709909 -0.071124 -2.201276 -3.884069 4.135911 -0.155297 -1.183250 2.621986 -3.832505 0.788333 -1.645280 -1.150757 -1.134270 -1.544527 0.498225 -3.640279 -1.130278 -0.888621 0.437596 -2.332873 0.317801 -2.446259 -0.470542 -1.682693 0.453396 0.953628 -2.524719 
3114 2.874044 0.108146 -1.603873 0.076638 -1.048372 1.021929 0.620351 3.586644 2.004365 2.471798 -0.114702 6.389142 -0.717516 -1.545377 3.835388 0.788010 3.168702 -1.054800 -4.106274 0.446441 0.010190 0.012201 0.014887 0.164211 -1.632167 -0.934719 -0.728724 0.031541 -2.307120 -0.717394 0.248328 -2.361378 -1.211232 -2.574679 -2.012840 -1.582614 -2.230313 0.873048 -1.888996 -0.960206 -2.106838 -0.031109 -2.361484 -1.511171 2.872307 -2.560086 -0.129526 -1.443561 0.816168 2.897102 -2.629031 -1.076699 -0.971281 -2.590693 -2.833171 -0.223530 -1.353083 -1.994112 1.305270 1.119419 1.601055 -0.141162 2.912342 2.585665 0.937883 -2.630489 -0.367663 -0.027201 1.450126 -2.853207 -2.605443 1.302654 0.003457 3.169964 0.132859 2.235251 -4.569876 4.486880 0.002706 2.612709 -0.615177 1.393290 1.055654 -0.088553 -2.156492 1.489702 -1.876022 -1.674099 -1.336491 4.197903 -2.820222 -0.613894 0.871059 0.664364 1.270460 -1.383152 -1.160218 0.652826 -4.921424 -2.393251 -3.077293 -4.081175 3.332784 0.076657 4.358663 1.133526 -3.362942 -3.275082 -3.042062 -0.987033 -0.735982 4.500560 0.762518 1.081098 -3.123802 -1.292406 -0.107865 0.380858 -5.135954 -0.973826 6.372216 -2.373137 -1.473130 0.150960 2.407894 3.623039 2.170760 3.955162 
1610 -2.682449 0.207332 -2.482223 -0.044063 0.873385 -1.898613 1.217575 0.030756 -3.423836 -2.538857 -4.262567 0.555416 -0.049362 -1.294689 -2.565145 -5.608739 -2.298252 0.572610 -0.608374 4.100399 0.230035 -1.080729 4.908924 3.240492 2.136251 0.495220 -2.133208 -3.230849 4.339043 -1.687826 -2.299537 -0.329966 0.656940 0.791305 -3.988899 1.043147 1.083162 0.928932 -0.130238 1.960622 2.703908 4.529069 0.037273 0.095961 -2.153608 -1.981199 0.605358 0.495302 0.335579 0.829360 1.918412 -1.979579 0.172752 -5.328193 1.598625 0.103986 -0.459316 0.298284 -2.354479 -0.954612 -1.358440 -2.532169 3.796307 1.711583 -2.733586 1.975984 -2.803367 -0.264486 0.692214 -0.865149 -2.367814 -1.980730 -0.833981 -1.993090 -1.592983 -0.552887 2.094997 -2.683003 -1.899127 4.125833 6.182829 5.512299 -2.266781 1.807596 -0.747475 2.839943 -0.584396 -0.316037 -2.644898 -2.238618 -3.184049 4.315529 0.779268 4.849501 -0.732273 2.401304 -1.370612 -2.774616 0.904333 -1.942753 0.214090 -0.066050 -3.364825 -1.051021 -1.920655 1.085926 -0.201143 1.760029 3.941518 0.534118 1.614507 4.471101 -2.174171 -1.400800 2.019955 1.540109 0.603227 0.709790 -0.750351 -1.153792 3.143868 -4.001242 1.509030 0.243984 4.172752 0.711696 -3.739552 -7.870162 
1291 -3.411096 0.954007 -0.928892 0.533050 1.800299 -1.950137 0.000710 0.381244 -0.538455 4.080132 -3.058350 -1.400921 -0.550920 -3.115426 1.514401 2.621134 -4.791647 4.837468 -0.387987 0.307788 -1.789370 2.930603 0.976345 -2.716518 0.278474 -1.492997 0.057243 0.867794 0.930304 -4.129233 3.938534 3.683550 4.363496 -2.308241 1.155646 -1.220152 -1.663454 -2.449486 2.560616 3.687489 -1.156703 -3.685104 2.586135 3.109664 -2.116645 0.408364 -1.110961 0.849020 3.542949 -2.607204 -0.172733 -1.946657 -1.800156 -5.366110 2.584077 1.962433 -0.264209 -0.261492 -0.460841 -1.311127 0.624659 1.656553 2.762800 -7.898623 3.201096 1.243877 -4.891847 -2.283749 3.418299 0.621843 -5.092575 0.142565 0.621799 -0.995352 0.279374 -1.414650 0.412714 -1.672833 -1.554972 1.565119 2.130116 4.834595 -4.784208 4.134298 0.900355 -3.341797 -3.307237 -0.220966 -2.636112 1.844542 -1.441603 0.609466 0.211233 1.924096 -1.083868 1.634780 0.029497 3.398200 1.388906 -2.965511 2.799472 -1.759102 -1.786132 5.871839 -2.300640 -3.250932 2.597325 1.092300 1.913347 -3.519428 0.630973 2.293391 -1.836566 1.139618 3.523040 -1.576038 1.641859 -0.868770 2.374144 -0.263287 1.683307 -0.887252 0.740414 1.031081 1.027822 0.477101 -5.279464 -1.332523 
2791 0.707024 -1.067972 -2.204447 -2.059614 -0.719635 -2.814716 -2.622335 -2.495244 -4.371996 -3.602860 0.014034 -0.270004 -2.914876 -0.781239 -1.242493 0.960424 -1.002363 -1.814477 -4.673590 -5.924071 4.941213 -0.532857 -0.747067 -3.951639 -1.518457 -2.637122 0.752446 -0.214595 0.163888 5.556373 -0.524326 4.417836 -0.114065 -2.439843 -0.167267 -2.510573 1.482370 -1.335193 -1.266765 -3.131746 3.041191 -4.585105 1.427324 -2.131006 -1.008334 0.193851 -0.229520 2.213642 2.013541 3.115212 -4.304420 5.345996 1.160480 1.785972 -1.673601 -2.141318 -0.679444 1.046003 -0.264696 3.623371 0.455105 0.683347 -1.439472 0.804610 -2.791420 1.262437 4.331545 3.506742 -1.658902 0.005754 1.744174 1.442973 1.210736 1.883250 2.608041 -2.183334 -3.252396 -2.022825 -2.202896 -3.272028 3.575711 1.039339 -2.058896 -0.587231 2.780305 0.083948 -0.953078 -1.958320 -1.325521 -0.586942 0.927876 -1.604905 -0.157827 0.583915 -1.699352 0.158068 0.769112 3.585710 0.389064 2.710477 -1.126523 5.662019 0.389893 -0.146316 0.830307 2.138948 0.885803 -0.996935 1.873103 -3.275183 0.107308 -1.602068 -2.228181 -5.891464 -1.335790 4.530646 -0.269263 -1.740718 0.003460 3.375454 -2.658184 2.828155 -3.084325 0.537045 1.563673 -1.397999 0.588169 3.338926 
924 -0.833501 -1.821347 1.303281 -5.975534 0.329226 1.295806 -2.687324 1.573818 2.237372 4.774376 3.999345 2.710026 -1.859146 -3.097269 1.815172 -4.415224 0.779330 -0.547330 0.253535 1.175240 -4.004562 -0.988548 0.713764 -0.582278 0.489493 0.511187 -0.555654 1.108039 -1.177888 -4.884926 1.030351 1.447167 1.949415 5.173051 1.032677 0.071385 1.915857 0.661301 -1.877510 2.178687 5.917134 3.176637 -1.454479 3.921386 -5.002980 -6.400333 -1.415565 0.789550 0.310771 -2.053330 -1.647349 -1.191927 -2.342485 -1.055185 -0.599041 4.699846 -0.090106 0.493945 1.990870 1.938808 1.264850 -1.579211 1.457807 -1.936240 -1.129125 -1.011334 -0.656401 -0.888973 3.356957 -0.270781 -3.689622 -0.316906 2.051748 0.874659 -3.152026 0.701628 2.614608 1.442016 0.358156 1.521981 1.788705 6.061748 -4.984386 -0.692661 -1.655502 2.443131 -3.132028 1.492770 4.060377 0.225808 0.384374 4.595448 -1.398591 0.824022 -2.855126 0.375502 -1.382367 2.277790 -1.580578 -0.736454 2.476344 -1.232540 -0.338901 2.292665 3.248809 2.450309 -2.069744 -0.329914 4.165887 0.436160 0.479620 3.096026 -1.689331 -3.096609 1.325226 -1.500053 0.718954 -1.305670 -0.232491 -3.015706 -0.627249 0.847408 1.831369 1.159346 0.652320 -1.340081 -1.843454 -2.879186 
1387 4.341709 -0.102328 -2.856217 1.236671 2.423984 0.565439 -3.359918 2.155591 0.583217 3.601832 -3.489219 -0.481166 3.456105 -2.500405 -1.942317 -2.468323 2.298822 -1.812952 -3.310287 4.072058 2.684942 4.131445 1.005665 3.301067 2.914358 0.323538 -0.932843 0.468884 1.990112 2.193123 1.348826 1.198379 1.179929 -0.711291 -1.026381 2.127303 -1.478895 2.128538 0.698352 0.380886 -1.890670 -3.534634 -2.407062 -2.315251 3.409294 -5.048193 -1.675966 1.847183 -2.520115 -1.156088 3.719645 2.099168 -0.193597 1.535810 1.370125 2.218560 0.357712 -1.719275 -1.604440 -1.651724 3.915027 -1.044174 -0.046657 -2.884989 1.478251 0.444753 -0.191690 0.245417 -0.475389 0.646209 2.051622 0.766065 -0.218699 1.717922 5.493703 2.943591 -1.144456 2.018942 -0.330659 1.879886 -0.376868 -1.754557 -0.917138 -4.785582 -3.681847 -4.271374 -2.139126 -1.027712 -3.821656 0.279662 -3.453926 -2.165276 2.898908 1.226926 1.771362 0.939680 -2.387560 1.071474 -3.810474 -0.290360 2.136608 1.232944 0.618674 0.112365 1.130526 2.519742 -2.867486 1.359262 -1.277437 3.640250 1.222413 3.150249 -2.357407 3.044082 -4.913439 2.596364 -0.791701 4.397452 -0.787145 0.420717 -0.301895 1.567401 2.163536 4.620837 2.309542 2.360959 2.441128 2.128753 
1704 3.975860 0.873489 0.525459 -1.587489 2.428140 -0.266280 -1.013850 3.495239 -3.279926 0.461911 0.106763 1.875228 -1.884769 -0.121574 -5.662000 -1.467238 4.321143 0.268140 -3.059419 3.470188 2.385869 -2.951975 1.368811 2.556702 -0.151336 -0.934727 1.281914 4.153200 -0.420823 2.784226 4.379677 0.321399 1.428242 -1.908675 1.035462 3.427546 -1.400389 -0.002302 3.930908 2.037699 1.575848 -1.334714 -4.825887 -4.236322 5.166763 -2.089134 2.993646 -1.863833 -1.713574 4.477736 2.284934 -2.369728 1.303883 -1.764285 -1.096447 -2.192607 3.883591 4.382462 -4.682051 -2.133024 4.342633 1.707983 -2.013497 3.990797 1.922097 -0.218570 -0.561975 0.904284 -1.805844 -2.113524 2.351227 -2.897603 -0.075444 1.591357 0.019821 -3.608171 1.591971 -0.233017 -1.452532 0.713061 -2.223989 -2.285644 1.525445 1.377102 -2.338349 -1.111882 1.723819 2.047960 -3.880994 -0.126317 0.924873 0.702394 4.326436 -1.283648 -1.095945 -0.536833 -0.240506 1.509592 -0.859249 0.268590 1.258860 1.377837 0.592195 3.230006 -0.482195 -0.634030 -1.672417 -0.036203 -0.933491 2.387686 -1.013642 0.919903 0.317690 0.549079 1.825710 -1.101789 -1.983312 1.010735 4.116410 -1.188805 1.641819 -1.642433 -2.475087 -2.933069 1.246442 1.660602 0.852761 0.385499 
2916 -3.462663 -2.451022 -5.572362 -0.765980 -2.353770 -0.810357 1.091528 -1.609536 -1.399442 -4.026023 3.239985 -2.522182 -5.849789 -1.527621 1.361337 3.252821 -0.885852 1.356484 -0.316443 -3.866848 -2.273643 -0.597459 0.375425 0.051445 -0.105046 -1.925035 -3.082127 0.942864 -1.020746 -0.754380 -0.994364 2.145403 1.737572 2.718399 -0.193742 -1.121011 -0.011203 -1.689178 -1.154643 -2.299142 -1.641174 -0.552998 -2.112848 2.130954 4.362231 -4.472999 2.969951 -0.449513 5.258863 1.157971 -0.774327 1.141909 -0.297073 4.156552 3.961837 -1.083758 -2.023215 2.826799 1.216512 -1.487210 1.283500 2.174826 -1.851213 -1.517614 -0.194744 0.041621 3.676210 0.831084 -0.134084 0.923273 3.783850 0.952281 2.814680 0.354752 0.782279 3.993365 -4.652725 0.958367 0.192352 -0.342343 2.168985 1.683949 1.512815 -0.393899 1.381559 0.140858 -1.647142 4.201704 -2.553971 -1.696090 -1.382473 -4.437672 -2.375932 -2.529366 0.348941 -3.028716 1.638403 -4.323444 0.532308 -2.193138 4.735564 1.492294 1.722557 -3.727648 1.672943 2.752665 0.755537 2.398280 0.511830 -1.774957 2.808832 -1.629802 -2.612731 -1.876431 -4.361035 2.827906 -3.079654 3.151138 2.711314 1.093779 -6.616556 -1.436882 -2.372514 0.456653 -1.432438 0.701451 -0.124032 -3.360574 
34 -2.705370 1.735819 1.149916 -2.037395 1.485713 -3.786906 1.249830 -4.286353 1.961783 1.897443 0.937150 -0.593501 -0.430624 -0.082183 -0.616026 2.050513 1.790014 0.064248 -0.261373 0.702024 2.075296 1.638111 -0.330300 -0.564363 3.177044 -2.703794 0.720343 -1.808445 -2.808205 1.894837 -1.236035 0.347222 -2.334866 -0.406296 2.040751 -1.520264 -1.544756 -2.006900 -0.921867 -2.293092 -0.487850 -2.035504 1.153317 2.819965 -0.553566 0.547483 0.929093 0.844386 1.421279 -1.141638 -6.230062 1.036238 3.311339 3.489479 -1.032817 1.230956 -0.507697 -0.980695 2.382426 -3.752218 4.853845 0.400667 -0.854817 1.515074 -2.022115 -1.557122 0.283446 2.645407 0.648348 -0.869732 3.552258 -0.505743 -2.832800 0.545419 0.784902 2.420654 -2.425838 -2.022420 -0.459391 0.364316 0.417104 -0.034665 -1.530596 0.716797 -0.373893 1.058266 3.961468 3.590847 -1.344667 -1.704150 1.769314 -2.389478 -3.287534 0.846282 3.473487 1.427006 2.812483 -6.229120 -3.569329 0.054816 3.803806 0.967998 1.266462 -3.988883 0.834506 2.629236 1.603817 -2.860620 -0.230725 -0.977247 4.331204 -4.067308 -0.217939 -1.978194 -3.139313 0.986232 -0.654555 -0.669827 2.447087 2.296624 -3.261382 -0.506318 -1.665476 -0.734856 0.991153 -0.352561 -0.997331 -0.038197 
1307 3.210177 0.377416 -4.198517 0.033907 3.189507 1.653226 -2.335164 1.945865 0.920304 0.179675 -0.794650 0.481225 1.473569 1.308894 -3.593199 -1.319743 -0.905223 -0.267520 1.903461 0.897972 -0.153033 1.031220 1.737737 4.253919 -0.283148 -1.027248 -0.059402 -3.744844 2.020618 -1.070293 -2.483490 0.539992 -0.619954 -1.865642 -0.058711 0.420551 -1.132866 -2.268044 -0.891181 0.416889 -1.964952 3.726556 1.082516 -3.171957 -2.093870 3.075048 -4.875597 1.606550 -2.349402 -2.437845 2.176685 -4.243041 0.092600 2.727285 1.043306 -0.782600 -0.792106 -3.419437 2.070443 -4.155550 1.453129 0.191916 0.679314 -1.621560 1.394660 -4.212695 0.149157 -0.925421 -5.965833 0.209274 -1.650536 0.327940 0.466940 -2.164969 1.642899 -2.871860 -1.646125 -3.816220 -1.849405 -1.551148 -2.879853 1.340279 -0.191540 -2.939382 0.709773 -3.750852 0.569587 -0.505060 -4.681504 1.819020 -3.869559 -5.190056 3.577455 1.571185 -2.671048 0.034678 0.453840 -2.240068 -3.770241 2.341066 -4.082947 -5.430204 2.541600 2.479059 0.568049 -1.230839 -0.139023 -0.510798 -5.957514 -2.561048 -0.235559 0.893220 -1.315844 2.163873 0.430573 -1.483987 -3.226933 2.542806 -3.084776 3.152838 3.792348 2.206477 2.278103 -1.699810 -5.318847 0.033006 -0.742974 -0.063741 
750 -3.895343 -1.483278 3.684861 2.551082 3.393917 2.724878 -0.251162 -3.683262 0.067974 2.685383 -0.297750 1.552665 0.243916 -2.800620 -1.465573 -0.903180 -1.943444 1.810275 -0.117099 -0.347108 1.264996 5.351128 1.883543 -3.109678 -3.331986 1.148932 1.307674 -2.117179 0.259051 -2.877403 2.059804 0.917964 -0.020420 1.816767 1.429937 -1.876162 -3.040597 -2.829458 4.244083 -0.340896 -3.166197 -1.953138 1.009582 -1.062197 -0.511476 2.282346 -0.395520 -2.108027 1.996883 1.174193 -0.930727 -0.856909 -1.483216 -2.494485 3.313910 1.673446 -0.128840 -0.712609 -3.801315 -2.574806 1.292847 2.365029 2.943033 -1.832951 -3.408566 2.574503 -3.004902 1.900375 1.252006 -1.876979 0.528555 -0.821015 1.106291 0.295163 3.031067 -2.520423 0.548837 -2.885578 0.172839 3.877131 -3.126698 6.271585 -4.794016 0.988611 -2.698723 -0.372882 -2.432746 1.792186 -3.424330 -2.696483 -2.708212 3.565477 2.031190 -2.053531 1.774041 2.678165 1.567792 -2.547148 5.067609 -1.852879 0.850540 0.294755 2.372318 1.245459 0.027680 -4.024134 -0.658041 2.221509 -1.069189 0.009051 -0.447662 0.660115 -0.228763 3.943693 3.978813 -0.649598 2.234462 -4.414672 -1.400461 -1.303060 -0.280253 -1.181619 0.346342 2.269474 3.456675 -0.461164 0.895496 -3.601167 
2355 1.489185 1.187377 -4.428686 -1.103226 -0.514118 -0.469542 -1.682722 1.916679 3.285580 1.391044 -2.192302 1.883067 0.490577 1.226758 -5.820545 1.008870 -1.930678 -0.198222 -2.705365 -0.769852 4.095550 -3.468814 1.980738 0.572226 2.718804 2.617747 -0.109125 5.741887 0.431329 1.409201 1.417500 -0.834751 -1.753563 -2.386433 0.758414 0.057325 -2.243345 2.863205 0.326654 2.639999 0.168789 -0.483772 -2.514614 -3.195046 0.328616 -1.735971 -3.352637 -0.431663 -0.508249 0.569602 2.672958 -1.284600 -2.115002 -1.265999 -1.264500 -4.440520 1.255760 -0.645943 -3.008575 -4.149595 2.196787 1.222157 2.353086 -3.223270 -3.021645 -0.853078 1.282917 1.897274 0.018619 -2.172884 -2.728087 -2.068617 -1.927304 1.838419 -0.630979 -1.691724 2.625887 -0.218957 -0.864610 0.397475 -1.838504 -7.193851 0.357260 2.075659 -3.005434 -5.450254 -1.221498 -3.869782 -3.540660 -0.038982 -0.947426 -1.050804 2.811944 -2.026796 0.453692 -2.801478 -1.700282 -0.573678 -1.098740 1.823110 1.981661 -1.764956 -3.387064 0.955521 -2.749937 3.512864 -1.110440 -0.466498 1.229577 2.036265 -0.453429 3.107738 1.951375 0.168845 0.740582 0.482506 0.786067 2.030275 0.315540 0.060096 3.323541 -0.089454 -1.167941 -0.819908 0.018901 2.397751 3.633097 1.024571 
1304 -0.044648 0.407114 -1.394242 -1.715225 2.309350 -1.635025 -0.980957 2.451010 2.017121 -0.193512 4.294409 6.103596 1.155519 2.353625 0.315368 -3.568982 1.818126 2.005074 1.086238 0.531666 0.994832 0.655920 1.034973 2.649020 -2.546368 -1.341090 -2.033600 -2.908849 1.493119 2.155402 -0.627744 0.537810 -0.173984 -5.207458 0.145580 6.834283 -0.033099 -3.433974 -2.238801 1.459963 -3.014359 7.334707 -0.694437 -2.126170 -2.517872 -0.883937 -4.289211 1.499705 -4.141999 -1.910012 1.562275 -2.690885 0.410504 1.365007 2.342063 2.895701 1.180603 -0.608353 -3.662296 -1.174074 0.572578 -0.763978 0.740207 -0.703452 0.675113 -1.997808 2.895100 -3.971559 0.438831 2.376356 -1.944919 -0.297707 0.746871 0.898259 0.572054 -2.087165 -2.730677 -4.005072 -3.091846 0.341548 -3.699131 1.838351 -0.183770 1.144000 1.011657 -1.867499 2.762556 -0.300283 -3.156523 0.477039 -1.175235 -2.547309 -3.371192 -0.603240 -2.402751 -0.053698 -2.324794 0.750966 2.056908 2.006486 -5.209432 -0.812986 -4.852596 -0.574554 0.215253 -0.284682 -4.438858 1.918623 -2.118109 0.767301 -3.639367 -0.044252 2.726353 1.171653 -0.704544 1.126022 -1.250052 2.896882 -0.879394 0.663708 0.586178 1.403973 -0.753965 2.672747 -1.331680 1.456798 2.078084 -0.135430 
908 0.621248 1.889524 2.124649 0.927357 -0.657913 -0.799793 0.479333 -0.603483 0.947792 0.208335 0.151276 0.719789 -2.964563 -2.164414 -1.035334 -2.331827 0.270703 -1.660370 2.560760 1.081048 -1.422671 3.555588 2.465712 -3.210733 1.113740 -2.618468 -1.659413 1.485830 1.501037 -2.364552 2.904001 0.816440 1.856563 0.940406 2.442757 -0.717630 2.725991 2.326962 3.764205 0.242456 2.956303 -1.448041 3.242284 2.627078 -1.504042 -2.809892 -0.022269 2.554798 1.555714 -1.107781 -0.209956 2.306666 0.378525 -2.785087 4.628065 0.739741 -1.129400 2.941191 0.088533 1.395212 -1.406943 -0.197761 -1.773544 -2.545152 0.429119 0.746338 -2.012284 0.429557 1.246790 -1.445579 -5.769553 -2.710448 3.042312 3.690859 -2.031595 -3.032935 1.603810 -1.516657 0.858134 -1.782298 -1.646726 2.587970 -7.238533 2.376268 -4.066957 0.794796 -2.320552 1.367658 1.017078 -3.153921 4.182522 3.168081 2.207573 1.361145 -1.269842 0.209382 -3.743092 0.179906 -0.671158 -3.136608 1.241390 -0.650332 -2.421522 0.446083 0.100925 0.092273 0.531829 -1.634699 -1.369556 0.754430 -0.858138 1.484502 -0.128912 2.482729 2.770885 -4.800723 2.940901 0.793474 -4.337977 -1.476330 1.279684 1.547410 -2.087037 0.959346 -1.951890 -3.311519 0.819845 -0.923472 
2918 -2.899183 -1.668377 0.491708 -5.960119 0.406535 -4.923584 0.496789 -3.430265 -5.212263 1.626834 2.094130 -1.614833 1.382130 1.887318 0.339023 1.321610 1.069321 -1.621697 -1.273934 -0.814370 1.048049 0.010979 -2.833876 -0.720544 -0.567337 -4.439575 -2.959961 -1.156044 3.150192 3.043066 -4.108470 -0.328772 -0.408701 1.100540 -2.182537 -0.365080 -1.176442 -1.052535 -1.862622 -0.642043 -0.021339 -1.313936 1.431127 -1.978897 -0.095539 -4.486222 1.637250 1.611048 3.644310 0.459011 -0.904095 2.247745 1.153659 -0.599012 3.829191 -2.896030 -0.493664 4.025429 5.301221 -2.254522 1.200503 -0.754298 -0.478626 -0.246430 0.309455 -0.656933 0.720124 0.932580 -2.576793 -2.825501 5.042462 3.338051 -3.772913 -0.638083 1.465012 2.566831 -2.002942 -1.924729 -1.686381 -1.369028 4.427616 1.085426 0.316141 0.212478 1.675639 -3.053739 5.563855 0.315622 -0.873843 0.836715 -1.355758 0.957780 -1.191533 1.332343 0.197365 1.795904 0.640147 -6.728406 -3.959036 1.049538 0.148419 1.611698 -1.684692 -4.537199 1.819350 1.195990 2.695785 -0.659150 -2.596074 -1.428118 -2.173394 -4.222965 -1.620974 -1.625836 0.383801 1.944606 -1.336896 0.740885 -0.437070 0.953443 -0.121835 -1.646815 -0.680022 0.351863 1.768131 0.573654 -2.687369 -2.107592 
2000 -1.842813 0.415484 0.656621 -0.670987 -0.850211 -3.716874 -0.645687 0.178627 2.337784 -2.209478 -0.083644 -3.496238 -0.339794 2.114392 0.025610 -0.510652 2.877056 -4.501944 -0.720928 -4.757537 0.935533 3.491344 -4.525861 0.278560 -1.464920 -2.265184 -0.921627 -0.722977 3.032040 -0.341887 -2.947871 -0.582607 -0.852309 0.572782 -2.131681 1.558752 -1.918671 -1.301039 0.587348 4.827508 -6.391896 -2.706554 -4.342887 3.520621 1.671541 -3.487164 -1.234741 1.712475 0.389010 2.187194 -2.576599 -0.282948 -0.189514 -1.004164 -1.418585 -1.617137 -0.258142 -0.080623 -0.943729 4.911802 4.664943 1.986945 -2.963455 2.559999 -4.350086 4.476960 -1.259516 2.708193 -1.947978 3.535643 -0.879747 2.362553 -0.533853 -0.901406 1.246095 -2.104373 -0.619407 1.585859 -0.704165 -4.273707 7.542826 -0.476561 -3.969543 -2.502805 4.819038 1.519909 -1.158026 0.915582 -2.139523 -3.081967 0.355449 -1.923677 0.480285 0.428665 -1.400535 -4.682657 -3.548198 2.781002 1.320417 1.201312 -1.391333 1.845083 -2.327530 -0.358316 -1.009153 -0.495656 -0.214084 -1.675824 0.624429 -0.082475 2.362826 -3.071393 0.236479 0.720706 1.448235 1.473521 -0.530663 -0.091174 0.460448 -1.220345 -5.105947 3.528499 -1.563052 -5.480980 0.027570 -0.774313 3.616435 2.629050 
1225 0.563065 -1.217547 -0.436853 3.788652 3.234194 -2.352429 0.892339 1.661280 0.056859 0.380399 -3.092842 -0.182194 4.449760 5.484048 3.057082 1.135060 -0.419350 4.305521 0.478437 3.315341 1.509021 -1.121332 -0.984478 2.581962 1.341061 -2.139473 -1.789255 -2.224480 -1.508983 -1.645509 -2.060267 0.799688 -1.751142 -0.325940 1.213414 -3.933346 -0.835880 0.644881 -0.515762 0.122208 -0.867481 -3.633020 -0.008592 3.100956 0.227587 2.480501 0.350835 -7.121466 2.851622 -2.977515 -1.070370 -1.072657 -2.475519 1.738864 2.026963 -1.958794 -0.648712 0.555484 5.118649 -0.014298 -0.782270 -1.491470 -4.599027 3.663309 -0.157715 1.224181 0.445485 1.205311 3.709022 -1.634441 0.708318 -2.511004 -1.068371 -0.560673 3.152283 -0.451537 -2.660600 -1.640431 0.535707 -2.323896 -1.210938 -1.877206 -1.015269 -1.673008 1.862895 -1.583009 0.787384 -2.427772 -1.435608 0.909796 -4.057928 1.885208 0.600559 -1.261748 -2.781675 0.247467 1.916729 1.637670 1.453562 2.288544 2.240828 2.411515 -4.523932 -0.743206 5.051162 -1.180461 3.406920 0.508555 0.749070 1.379663 -3.400280 -0.629743 3.575644 0.301528 -0.445334 2.327997 5.205707 -0.617118 -0.423027 -0.192547 -1.747044 1.323245 -0.117402 -1.081787 1.520555 -2.982219 -2.352831 0.029968 
3175 -4.195375 -0.181505 -1.195520 -3.350278 -1.948255 -0.663373 -1.033079 -2.942240 -2.705446 1.028601 -4.191305 5.487176 1.582691 1.074215 -0.621535 -0.153636 1.010771 -0.461774 -4.601354 -0.795045 0.819064 -1.937410 3.495385 0.498869 0.447426 4.266186 1.278812 0.557552 3.214540 1.431959 3.177845 -3.013255 -3.109545 0.220129 -2.558274 -0.427309 -3.293772 1.545547 -1.594290 -3.053215 -0.665789 -3.476575 -1.570747 -1.382920 3.394884 1.627231 1.160614 -4.004720 -3.477916 0.596001 0.642573 1.869030 3.748530 -2.450802 -3.721578 0.086227 0.782133 1.066860 -1.656329 -1.287701 -1.114391 -1.779013 2.993382 -0.122965 -1.283779 -0.397675 1.551750 2.095831 -0.474396 -1.568908 2.793587 0.286982 0.468635 6.600223 -0.629434 -0.110653 -0.314673 1.511010 1.155251 0.482023 -2.471106 0.188902 4.727181 0.424770 -1.094687 -0.331231 -2.226968 1.659326 -0.601491 2.840652 1.659226 1.619508 2.105119 1.244064 1.188607 -2.024824 -2.417734 -2.674175 0.077774 -1.026123 3.355125 0.619750 0.847716 2.257495 -1.520025 0.859035 2.695439 -0.615184 -3.459667 0.353290 -1.566505 -3.384589 1.583816 2.495369 -1.336541 -0.756637 -2.258348 1.718576 1.901788 -2.516544 1.954197 3.563723 -2.783480 -1.882410 1.089149 5.281598 -0.560872 1.923526 
2628 -0.483449 -2.581762 4.003664 2.746118 -2.018111 2.525087 -0.366105 -1.300391 3.069689 0.709052 -2.778486 -0.623162 1.615601 2.193416 -1.600508 -1.249279 -3.781274 0.640015 -3.235819 5.729182 -0.762228 -3.083252 1.462288 -1.594372 -3.008452 2.503144 -2.604136 1.387877 -1.869521 1.795933 -2.443552 0.050023 4.364270 0.969972 -2.280557 1.704055 -0.140102 -4.614202 -2.043212 0.347143 2.893324 2.821398 1.171786 0.762968 -1.286947 0.679257 0.889114 1.317706 -0.826493 3.869450 2.157383 -2.402826 2.757277 -1.264174 -0.832539 -1.922703 -3.067178 2.853853 -1.376942 -0.286842 -1.556072 -1.583920 1.787452 -0.311831 3.100117 -2.146855 -1.145180 -1.143145 2.315987 1.233530 -1.483659 0.526268 1.696595 -6.665684 0.676506 -1.959736 2.512104 0.863147 2.808588 -0.825429 1.347570 1.420693 -0.966252 -4.111667 -1.469224 0.113386 -2.669260 -0.195096 -4.661777 0.237752 0.735149 0.428271 3.626154 1.698061 -1.877664 0.739474 -1.548123 -0.905854 2.899488 -0.726295 -3.556830 0.993839 -0.728349 -0.100648 -3.036268 -0.598130 -3.510211 2.214968 0.640566 -4.042466 3.147810 0.609568 -0.843236 1.660794 3.396798 4.085303 -1.949466 -0.446787 3.688667 -1.961177 -2.181402 0.828617 -0.606533 3.208684 -1.502892 0.865807 -1.420664 -4.257655 
2599 1.585472 5.772301 -1.741225 0.766904 -1.986080 -0.183644 5.314038 -4.544880 -1.530885 2.036946 3.043043 2.997620 4.573705 -2.004321 2.933529 2.688483 -0.592820 -2.707760 -3.502555 -0.460174 -2.161690 -1.694229 0.203371 -1.441074 -0.908454 -4.553710 0.688481 -1.803816 0.040678 1.754237 2.512604 1.576576 0.925973 0.916558 2.492127 -0.406971 3.486410 0.620596 -4.442554 -1.859462 2.632076 -0.486563 1.360860 3.517285 0.536704 0.091975 1.124035 -1.561211 1.085417 0.900308 0.414027 -0.827885 0.125686 -2.215004 -2.037873 0.010036 -0.150936 1.748421 -1.671680 1.422928 -2.609887 -1.998899 -0.486999 1.670433 -0.056822 -0.954775 0.094451 -0.790201 -0.951599 0.554090 6.371228 2.961483 -3.226331 -0.760874 -1.679802 1.058999 -0.382083 -4.010500 2.954476 3.380589 1.075842 -6.927228 0.576838 0.543672 -3.164666 -1.930241 0.760423 0.232892 2.072277 -4.586915 -0.787092 -1.557555 -3.457118 -0.128453 2.818259 -2.022718 2.987029 -0.760113 -0.061362 -0.477480 2.619238 -1.489072 0.539176 -2.155464 -3.461516 1.247172 2.968381 0.873985 1.209942 2.393556 2.032828 -4.610847 -2.419775 -0.213369 -1.593993 -1.890597 -3.229464 -0.587822 0.344362 4.815452 1.483155 -1.723950 -2.957818 -0.220820 0.824459 2.120579 1.553388 2.357246 
2987 -3.000055 0.395777 -0.530799 -1.108234 -0.644412 -0.372273 -2.872876 -5.593202 -1.459108 -2.325995 -2.231632 1.269252 3.140633 2.585859 0.023952 0.162132 -0.257696 3.343258 2.489919 2.700797 3.485363 2.215753 -3.733163 -2.748672 -1.270294 -0.084419 0.003224 -2.698318 0.566577 -1.038272 -0.420754 0.915073 -0.246926 1.731311 -0.025252 2.970022 -3.935570 -0.537842 0.551888 2.759979 1.634409 2.705010 -0.200010 0.515111 1.139095 -0.568033 2.016017 -4.241558 1.662027 -4.175201 -1.518810 -2.305260 2.584489 -2.174944 1.176404 -1.465983 -0.725068 0.999282 3.316275 2.930967 -4.064399 -1.699131 -1.921322 1.574121 -0.479340 -0.704040 -0.935428 -2.203700 3.467793 0.850262 0.252807 -0.440247 -2.579657 2.309352 -0.183276 1.092648 0.881450 -2.514882 0.571233 -1.720680 -3.822846 2.086593 0.261268 -0.029850 -1.273090 0.508751 1.130854 -4.268373 0.718964 1.348971 -0.267779 0.292558 3.051361 -1.188255 2.079983 -2.485888 4.477886 -3.095940 3.709959 0.222897 1.726154 -1.615352 -0.880620 -1.007503 3.471576 -1.841232 1.136210 1.116324 -2.528592 -4.766923 -0.741866 0.343510 -2.041766 1.497209 0.273178 -3.001542 1.271378 2.636159 0.967850 -3.048998 -1.530224 -0.271527 -0.729770 -0.053197 2.036190 -0.127029 2.461929 0.533945 
2804 -0.301767 -2.156596 3.264704 -0.062523 -4.888593 0.447731 0.886101 -1.190023 1.118534 4.067442 0.017005 0.670291 1.474703 0.582244 0.176921 1.084225 3.691556 -1.996687 -0.269275 4.399082 -2.956563 2.880979 -2.924733 -4.505152 0.194001 0.444068 -4.316161 0.407945 -0.650754 1.130383 -2.685788 -2.104270 0.418272 0.247567 2.298518 -0.364254 5.971711 3.417462 0.638954 0.152006 4.205200 1.835408 2.791697 -1.241276 -2.195934 1.491013 -0.623892 4.773780 -1.828091 -0.944913 3.490235 -0.808873 -0.096580 0.285774 -3.347767 -0.302813 -1.361055 -2.013021 2.134129 0.718772 -0.055988 -1.189502 -2.217603 -0.444780 4.341946 -2.013673 0.175102 -0.691468 2.765088 -1.245806 -0.947168 -0.957618 1.127433 -0.737577 0.593285 1.321593 -0.399615 0.747788 -1.279708 -0.801824 0.172184 -3.062516 2.929637 -0.053858 3.441225 2.304425 -2.472340 -0.518653 3.628712 0.079053 -0.356146 2.585358 -1.333226 0.990766 3.967237 3.512603 -1.175512 1.424216 -1.317365 1.516725 -2.324907 1.489116 3.292442 0.907099 -1.886851 -0.695722 -1.332710 2.043439 1.437383 0.960098 -2.144451 -0.191537 1.007252 0.613462 8.644489 -1.465055 -3.088417 0.779685 0.703836 -0.012579 0.708963 -1.078304 3.043784 0.673368 -1.594659 -1.349507 -1.470250 -2.590793 
2959 -4.546628 2.182210 -2.070966 2.474878 2.746065 -0.147790 -1.110654 -0.572182 -0.693101 -1.234948 -0.851422 -1.562286 1.559261 -1.106621 2.740502 -1.104509 1.221602 1.330134 0.818320 -0.450462 3.345550 0.377361 -3.653347 2.189955 -3.500439 -0.119339 1.301335 -3.301280 -0.805943 -1.146924 1.485669 -2.129287 -2.724804 2.708604 0.107571 -1.202931 -1.086947 1.738388 -4.350776 -1.398270 -3.631995 1.849162 -0.071772 1.538362 1.544462 -0.930104 -0.185837 -4.843470 5.869331 1.759256 -1.010480 -1.978112 2.579608 2.594144 -0.468133 -4.783493 2.335676 0.029059 8.185494 0.408934 -0.446467 1.712656 -2.632334 2.955895 -0.300278 0.066868 1.472263 0.982485 1.893520 1.168525 1.863914 2.754455 0.074742 -0.522921 1.796095 0.551155 -1.887022 1.087440 0.929264 2.355075 -0.680330 1.009045 -1.248239 0.005335 0.669932 -1.785645 0.406208 -3.129565 0.873424 -0.191464 0.430928 1.784333 -0.131289 1.005506 -0.068581 -1.091221 2.381377 2.981741 1.882117 -0.551679 4.098967 3.256012 -5.242579 -0.603553 1.382169 -0.007530 -0.455751 -1.712943 2.742788 -1.700363 -0.431172 -0.845748 1.199790 -5.172681 0.420726 -0.155537 -1.261916 2.379948 0.204552 0.239344 -0.412881 -2.092173 -0.543915 0.030555 0.661072 -1.550896 -4.052957 -0.899636 
32 -2.462654 -1.698919 -0.970981 1.195800 -2.863466 -1.022676 1.887976 -1.810687 1.277199 2.076582 -1.190362 -2.441571 1.273105 -1.609076 3.156429 2.647738 0.565788 -1.464438 -1.951341 -1.550441 -0.393286 1.040915 -0.881059 -2.053118 3.309548 0.014447 -1.439898 -0.470834 0.297080 -0.698539 0.195692 -0.691241 1.509527 1.528003 -4.512044 -1.314973 1.605798 -0.692749 -4.001171 1.261824 -2.045094 0.079734 0.468034 -0.624137 -1.641827 4.427128 1.689357 2.432185 3.736858 0.733150 -4.138799 1.473461 0.082646 3.273454 1.543776 -1.580387 3.111599 5.442694 -1.773338 0.473002 1.049229 1.042678 -0.177583 -0.492308 1.912119 2.491019 -0.105928 5.837971 -0.717241 -1.044546 3.387727 2.937543 -0.847029 3.406835 0.483609 -0.009348 -1.581606 -0.309853 2.257276 1.065398 2.980390 0.343975 -0.419042 -0.859052 -0.433508 1.471473 4.251448 3.030030 -0.466918 -3.584469 -1.354493 -3.183787 0.052466 -0.318855 0.723512 -2.765482 1.122064 -6.066137 -1.682637 3.365322 3.931073 1.041188 -2.941126 -5.150248 1.047971 -0.141124 3.288378 -1.162745 -2.503085 -5.088439 2.999516 -3.074891 0.068169 0.884406 -2.836946 1.728304 -0.584692 -0.474809 -1.682639 -1.652680 -1.077647 0.026983 0.266403 -0.134809 -4.382935 -0.575025 0.842300 -1.158931 
1968 -3.616789 0.482415 -2.362609 -3.459047 -4.572306 -3.447544 2.210340 -2.693729 -1.322503 -0.799057 0.860442 1.296292 -1.262754 -2.647039 2.671065 3.483212 1.328717 2.167973 0.474523 -1.671917 -2.804647 -1.156228 -4.103076 -0.134607 3.227959 -0.583183 -0.154360 -1.060768 -2.171573 3.176129 2.603217 2.229226 2.316905 -2.093654 2.223479 -1.969282 -1.031015 2.409184 -1.354965 -0.712356 -1.974947 -3.813981 0.121287 2.408282 3.297174 2.581997 -0.060558 0.711644 3.920778 3.059457 -2.851907 -2.138943 0.407509 2.304437 -2.835491 1.220782 2.518319 1.448591 -0.532185 1.092636 0.551056 -0.700923 -0.067451 0.441010 1.440449 -2.201517 0.393091 1.099176 2.321050 1.310413 0.806423 -0.042003 -1.093419 -2.891161 2.655247 2.986024 0.652061 -0.615707 1.661816 0.757005 -1.162302 1.607839 1.089174 -0.433805 -1.155958 0.413619 2.954274 0.659858 -2.583372 -3.907395 0.002959 -3.512245 -1.086642 -2.925277 1.873315 0.114761 0.938263 -1.826617 -3.646198 -0.065454 -0.914735 -0.619835 0.446949 -5.105507 -0.085259 -0.180785 0.578796 -1.370256 -2.689201 -0.696473 1.681742 -3.534551 -0.791071 -4.386742 -2.476015 -1.197601 -1.602451 -0.336293 -2.181635 -2.599500 -0.215571 -0.833399 -3.668027 -0.337348 -1.040017 0.287669 -0.242491 1.092833 
1394 2.161351 -0.171710 -2.526491 -2.610256 0.398174 1.927180 -2.487599 0.160616 1.091940 2.917950 -0.033315 0.248574 -1.980595 -0.695141 -1.340907 -1.042786 5.656117 -1.268576 -0.199498 2.023527 1.508643 -1.666661 -3.647565 0.705014 3.100306 0.187470 0.320576 1.082064 -0.986119 1.412646 2.496077 0.787821 -2.202095 -3.097079 -2.342739 -0.344708 -0.216817 3.910025 1.229990 1.147369 -4.224647 -0.918718 -2.635818 -0.753433 2.767269 -0.892187 -1.379854 0.688723 -5.077911 3.586007 3.907703 1.708935 2.906059 1.148591 -0.640726 -0.869639 -0.245563 0.162108 -3.873668 -0.907321 5.274878 0.923503 4.070007 -0.872891 -2.283309 -1.521686 5.418640 2.450736 0.817384 -2.739264 -1.339550 -2.127676 -3.714449 3.558115 1.440073 0.048598 -2.807184 -2.292091 3.010452 1.803984 -1.195354 -4.585671 -0.941597 1.214435 -2.435337 -1.216786 -0.331615 2.241267 -2.351391 1.955996 1.686259 0.403602 0.911749 -0.873937 0.419716 3.078204 -2.264184 1.205172 -4.417781 1.252470 -0.463781 0.040368 -3.216223 4.198246 0.833924 0.864141 1.387987 -2.282655 -2.698785 3.729851 -1.101656 1.970538 -3.325063 0.400802 -1.198564 3.211294 2.891711 -0.225762 2.096380 -0.848947 4.915538 -0.415874 -0.143226 1.984293 1.100139 2.791319 -1.677223 1.531064 
3471 -0.963288 -5.624838 3.164284 3.239231 -4.104483 0.013728 0.946697 1.681199 2.046342 4.408899 0.748297 -0.994333 -1.615062 -0.038254 -0.098861 -3.389811 2.428937 0.044172 3.165761 1.625952 -3.314733 4.381726 1.496999 -1.619228 -0.237073 -0.417417 2.522080 0.318255 -2.255523 -0.554562 -2.578932 -2.086466 -0.329886 1.690465 -1.860859 -2.357545 1.259214 -0.396609 1.849414 -0.494635 4.074179 0.827485 1.060181 -0.792823 1.919705 2.171514 2.169760 2.277513 -1.509285 0.432460 0.433153 0.681656 -1.237954 -1.024782 -3.487845 -3.847476 -2.095001 0.704506 -0.015080 -2.365911 -6.015663 0.599518 0.425505 0.545672 4.807934 2.434511 0.916408 -3.836771 2.006965 2.621489 0.602052 -1.125275 0.626127 -0.455412 0.648589 2.023944 -3.560721 0.690763 2.088695 0.674669 0.781761 0.876484 1.296836 -1.071045 1.664710 3.568749 -3.013048 0.371754 -1.353105 -2.623570 3.401652 -1.456873 -1.630253 0.026509 -3.249095 3.232664 -1.153608 -3.158261 1.874277 0.793371 1.457908 0.501060 2.681256 5.311601 -1.825474 0.095542 -1.870216 2.795078 0.547847 2.907042 -1.958089 -2.950567 -0.965430 3.295638 1.069214 -0.030139 -0.726366 0.634294 0.150061 0.247678 3.071773 1.474691 2.479434 3.284557 -1.624588 -3.713723 3.344093 -2.690271 
1230 -1.375047 -0.171811 0.440392 -2.008732 0.465841 -3.380111 -0.757160 -1.427027 -1.042201 -1.909178 -0.782538 -1.629495 0.282175 3.282583 -1.291941 3.011663 2.704472 3.345562 -0.553257 0.135895 1.733641 -2.254153 -1.726502 0.862332 -0.266718 -5.317726 -3.683994 -4.011189 -1.857109 1.982501 -0.283538 0.561837 -2.555382 -0.182224 3.413678 -0.205470 0.179119 0.519229 1.149875 1.274564 -3.287843 -0.524224 2.187512 2.542239 -0.797866 3.895586 -5.201114 -6.835032 -1.606720 -3.304502 -0.481864 0.899470 2.747577 2.213914 1.500378 -0.652271 3.301584 -1.832595 4.480562 -1.286360 -0.737526 0.336012 -3.576944 4.038665 0.121830 -1.247037 2.151891 1.578526 3.348577 -0.806211 1.698373 -3.226937 -1.362637 0.191261 1.386289 -1.533215 3.419458 3.589232 2.917090 -2.960500 -0.515389 -1.070831 0.059914 -1.885325 -1.353300 -1.961277 1.085869 -2.962157 -0.863875 -1.980487 -1.132626 2.023253 2.156795 -2.892579 -3.019884 1.331653 3.787888 -0.787293 4.631209 -3.314278 1.328293 2.247229 -2.903103 -0.417958 0.907333 2.733271 2.125519 2.522545 -1.422222 0.448441 -2.475653 1.478919 -0.702498 -0.004349 -0.584230 -1.205245 0.734273 -1.131078 -3.162006 -0.497051 -1.348280 2.120162 -2.326139 -1.149114 -1.366457 -0.150911 -0.941158 -1.219888 
2797 -2.533069 -1.458468 0.210752 -1.932262 0.945905 -3.534657 -2.338533 -0.201776 0.727683 -2.313395 1.456495 -0.264362 -2.913419 -3.219100 -2.780163 0.114547 -0.412353 -3.424943 -0.074395 -2.079180 1.536948 2.023759 -3.942915 -1.715570 0.874687 -5.392700 0.065963 1.857269 -0.515596 -0.580305 -3.516022 2.630634 0.137445 1.093339 0.562892 -1.865327 -0.580272 0.675090 2.399476 -0.871715 -0.009137 -1.673493 -0.416640 -1.245503 1.163481 -5.966176 -1.120027 0.874265 1.519157 0.739634 -4.781499 1.533898 -0.723049 0.879628 -1.365047 1.731106 0.797611 -3.201611 -1.251696 1.134084 -1.180393 1.317230 0.478479 1.856136 -2.770973 7.290040 1.228114 2.454367 -1.430329 -1.189086 4.031019 2.014750 0.177378 0.022643 1.372845 0.535505 -4.994447 2.992611 0.758627 -3.419514 1.453493 -2.353743 -2.226859 -0.146007 0.845294 -0.248887 2.449069 -1.419374 -2.380741 1.875766 -1.858505 -2.616933 2.459880 2.119267 -1.497904 1.974311 2.418199 2.262815 0.372714 -1.105973 -1.693339 -0.957246 0.733290 0.867828 -1.806111 1.821108 -2.201952 -2.574687 0.028477 -0.442469 2.713914 -0.195130 0.437256 -2.263409 -0.417802 0.191871 -1.584558 -2.139050 -0.283424 2.100967 -3.184353 0.483670 -3.179360 -1.981817 -1.175791 -1.845003 -2.797207 -4.119180 
1784 4.148046 5.038046 5.838776 -2.299889 -1.266311 -0.052233 3.019921 -1.541491 -0.884572 -4.266634 -0.594755 0.208722 -0.553374 -0.440260 2.531825 0.900657 -2.502391 -2.493864 2.232227 0.967238 -1.064470 1.220989 -2.914863 -1.399084 3.845503 2.241545 -6.652430 1.731520 0.310242 0.153014 1.682512 0.881042 -0.031198 -1.197823 4.245753 -1.570613 1.175008 -0.323483 -0.904531 -3.702071 -0.570894 2.268425 -3.933402 0.267678 4.939589 0.749887 -0.212511 3.537045 -1.057500 2.477278 1.762373 2.161488 -0.466081 -1.326628 -3.030519 -1.608245 0.400369 -0.136658 -3.202340 2.673265 -2.062138 -4.830482 -0.527188 1.496191 -1.539528 3.444922 -0.438062 1.377904 0.242434 1.935442 5.720634 3.193122 -0.691117 -1.525581 3.193308 -0.146608 -0.513109 -2.176544 2.170307 1.270446 0.833317 -2.573991 -0.064329 2.666755 -1.104688 -2.141587 2.160897 1.215642 -1.897287 -2.626923 -0.402482 -2.163850 2.805645 0.753017 -0.437527 -4.691463 1.998063 0.520039 -2.010075 1.124768 1.042836 1.258783 2.581752 0.212256 -2.377443 0.337140 2.905955 -2.214655 1.124248 -0.791458 -0.720609 0.062433 -0.108767 -1.368094 -0.459525 1.361022 -1.505972 -3.204484 -0.133443 1.814166 -0.159578 -1.856063 -0.566522 -0.513824 -1.615859 0.507937 -1.963139 2.281628 
1247 2.253714 0.228298 0.559096 1.306553 1.660814 3.512065 3.128354 -2.857121 -2.680291 -0.547994 -0.110177 -0.815325 -1.190232 2.734784 0.422566 -0.066903 0.114476 6.636080 -1.228341 3.041498 2.200152 1.385348 -1.620988 0.972655 1.070418 0.651462 1.950385 -4.040364 1.933038 1.385903 -0.374898 1.563040 0.825124 1.203977 1.530094 -2.423720 -3.160074 -0.153913 0.726944 -0.491989 0.837802 0.500937 -0.585623 -2.743742 -3.999507 2.018231 0.616888 -3.929026 -0.752931 -3.820720 3.129309 -0.117767 7.307749 -1.584982 -3.396219 -2.268027 0.563568 -0.040565 1.981309 2.553488 1.926539 -1.711623 -0.805636 4.116208 -0.462288 0.617013 -0.619219 -0.129571 3.262068 1.688483 -0.587691 -0.943221 2.062072 1.053628 5.888710 -3.136429 2.711605 -2.693550 -0.831117 -2.860753 -1.988562 2.788816 -3.058127 1.732198 2.209526 -1.548142 0.656861 -1.595263 2.030528 0.175907 -3.699959 -3.293659 1.893049 1.050836 1.356967 0.264006 5.993357 -1.536816 -0.771100 -2.985120 3.420994 1.651463 -2.013783 0.513106 0.690213 -1.995436 -0.585081 1.826682 1.382109 -3.281976 -0.346775 -0.696982 0.564396 3.081595 -0.304473 -4.153963 0.975840 1.667180 -0.756128 -0.114938 -1.793086 -0.100893 1.196151 -1.179861 2.651438 -0.963793 -1.144010 -2.242720 
3793 0.937003 1.036364 1.429028 1.879199 -0.646784 0.762317 -1.102718 -3.238717 3.225040 -0.220360 0.143158 -1.021394 0.111262 -1.713673 1.183414 0.017609 -3.100591 -0.396956 -0.373058 -1.070663 0.955018 -0.004121 0.933023 2.122337 1.895534 4.764634 0.662566 0.657859 0.884427 2.591582 0.263344 -1.159510 3.231430 0.058544 -0.334935 2.448958 -0.004485 -1.771221 3.231770 2.090705 1.032696 -0.655121 -1.753244 1.173460 1.206439 -1.963370 2.652343 0.054478 1.078569 -0.132475 -1.094942 -1.537834 -0.143720 -1.516837 1.571949 -0.875326 -2.103389 -2.578434 1.816522 4.260722 -1.922208 2.402667 0.312918 -1.235021 -2.412594 2.087373 -1.810335 -3.532159 1.246322 -0.298771 -1.851839 4.402123 0.926307 3.923277 -1.707039 3.155810 2.438635 -0.713842 -1.039602 1.366053 2.075883 -0.121138 2.322014 2.169239 1.248720 0.418197 0.353547 0.624598 2.536653 1.688745 1.136433 3.161346 3.621327 0.946448 -1.975318 1.795589 0.605289 2.616303 0.174952 -0.688708 -4.632642 -2.156663 0.812126 -0.571588 3.985084 0.002701 -2.423213 2.297018 1.891028 0.103255 -1.758144 1.326162 2.034588 1.023028 0.471126 0.807988 0.382752 0.207458 -2.474230 0.084692 2.541913 -0.732691 -1.652198 2.224210 -1.016372 -1.152747 0.248891 -0.503420 
1961 -0.385887 -0.391944 -0.471245 2.392373 -4.081977 -2.864362 0.429879 -1.665190 0.107983 1.946817 0.180684 0.079702 1.325694 0.325080 -0.628646 4.731984 -0.613031 -1.019817 -1.776116 -2.608290 -1.774219 0.434779 1.647920 -2.796766 0.502923 -0.522564 -0.825316 -2.099934 -1.254638 2.865759 3.238755 -1.212296 2.654338 1.986510 1.920233 2.055323 0.320966 2.687660 0.238302 -0.940540 -0.955932 -2.715823 -1.792880 1.555281 -1.451457 0.975959 2.186092 2.467221 2.980596 1.646493 -0.629708 1.672200 0.815868 0.550509 -0.493381 -0.372711 2.471979 -0.929492 2.429281 -0.722464 -0.505561 1.080045 -0.781899 1.343880 -3.007673 -0.776581 -2.354836 4.669098 -2.288344 1.301139 -0.034408 0.189325 -3.087326 0.653027 3.646999 2.954299 -0.042149 1.964505 -2.350769 -2.002685 -0.092408 -2.665714 -0.760044 0.268047 1.259897 -2.373410 2.572372 3.242291 0.325121 -1.135158 0.311349 -3.711321 -3.898823 4.617935 0.151692 -0.408072 2.965488 -4.209619 -1.765662 0.908282 3.773484 2.784920 -0.683860 -4.155866 1.139237 1.117161 0.151848 -0.698662 -1.625954 1.493870 0.131539 -2.290910 -1.357499 -1.203583 -2.190499 0.041771 0.010816 1.776695 0.481038 1.162356 -2.671857 -2.006310 -2.023122 -1.199548 -0.093249 1.934838 -2.257583 -0.783172 
1127 2.837532 -1.616892 1.484701 0.357256 -3.627115 -0.152051 0.287915 -1.184695 -1.985042 2.395867 -0.557065 2.603082 2.970287 -3.826142 0.349525 -3.101632 0.882455 4.170800 -0.209517 -2.689406 1.334439 1.142475 0.521081 -1.350380 1.951239 -0.795659 2.134035 -1.376527 4.660382 2.616076 -3.583642 -4.391383 4.437359 0.336462 -1.256100 -0.403394 -1.501464 3.322958 -4.022702 0.581497 -1.160257 2.264497 -1.425911 -1.370160 0.234464 -0.458741 0.460877 2.870146 -3.143778 -1.439994 4.124411 -3.225921 -2.611830 -0.347744 -1.810919 0.578734 -1.953057 -1.498700 -1.137596 0.578744 3.313545 2.889614 2.043664 0.289655 3.526523 -1.119795 -2.029910 -3.687879 -2.616942 2.649206 -0.903723 -1.707559 1.211795 2.474364 -2.586149 1.233263 -3.094369 1.856565 0.783227 -2.649409 0.345256 1.237164 2.851962 -0.590036 -1.436671 0.685731 -1.397150 -1.538680 -3.074636 -0.376179 2.143336 -1.572942 -0.815545 0.411766 -3.083550 1.489484 -0.077137 1.658365 0.922108 -2.087208 -1.348737 -4.730510 1.531636 -3.016308 -0.811004 2.532581 1.020951 -1.415313 1.497975 -2.834941 -3.520460 0.425991 2.411188 -1.581214 3.195683 -0.031941 -0.684605 -1.247573 0.623930 -0.277953 -1.491110 3.023976 1.025162 -2.953724 0.831093 -3.247848 2.643501 2.405681 
1219 -1.818998 0.034557 -0.930106 1.730706 -0.444568 -2.591938 1.969428 -1.092262 -4.948917 -0.512848 -1.868937 -0.099120 -1.397570 -0.489649 1.016696 0.818306 1.726706 2.989051 -0.953631 0.018962 -0.201329 -2.677249 -4.263823 -0.481940 -4.775281 -1.045975 0.021406 -3.053576 -1.969434 0.460593 -1.354420 0.577448 -4.035898 -3.908588 -0.848301 -3.121357 -1.126526 -1.001483 0.985049 -0.751661 -0.749727 -1.032333 0.633013 2.826817 -0.753973 -2.028925 0.149183 -5.210388 2.824159 -0.510347 2.059457 -1.711345 0.282015 -0.663941 4.197559 0.916287 2.655025 1.864423 2.234871 2.130439 -1.810209 -1.599272 -2.777707 2.654633 -0.112529 -3.500651 1.096807 2.044534 1.897440 -1.512757 2.246474 1.839516 4.804904 -1.500149 0.356780 -1.101804 -3.161408 2.349087 2.304454 -1.517959 -1.358876 -2.500296 -1.117289 0.541647 -2.395516 2.098317 0.947430 -1.767304 0.906499 -1.622948 -2.264462 -0.453921 0.263181 1.050144 -3.887922 2.203407 -0.282020 -1.615902 0.739628 3.597677 1.880878 3.616078 -2.724139 -0.551831 -0.227235 0.277526 -3.381885 -1.020581 -1.689773 0.428718 2.929073 -0.192014 1.056252 -1.834593 -0.391998 -0.510692 4.524634 0.286403 -0.502304 0.182477 -0.814015 1.788075 -0.438821 -1.413652 0.358564 -4.112222 0.503051 -0.580623 
223 1.856821 -3.376516 3.195325 -1.116300 -1.557415 2.095372 1.350633 -3.657921 3.528649 -0.004488 -0.135688 0.722716 1.534360 3.804298 0.672642 2.287868 0.274339 -0.539936 2.975738 2.780874 0.039850 1.182271 2.958122 -3.472993 -2.604320 2.836586 0.585812 4.233637 -0.992546 1.888138 -1.837249 0.825431 2.317085 0.259797 0.663133 3.404138 1.437636 -0.201536 0.513841 1.782515 3.612897 5.446954 2.455353 -0.997679 -0.014974 -1.079038 -0.936277 1.775987 -0.581568 4.517341 1.664323 -1.716264 -0.569980 -0.057586 -5.995114 0.318341 -1.566980 -1.119053 1.570288 -3.064830 -1.886451 1.604769 -2.243085 3.832613 -0.516105 -1.891446 0.286541 -0.686627 3.369057 0.836807 -3.357372 1.926490 -1.087351 -1.031760 -3.898418 2.055272 2.034521 0.497044 -1.054087 -1.481489 1.704884 -1.974768 1.256102 3.091939 -0.276760 3.733159 -3.905499 -0.009268 0.214599 -1.970402 4.687446 2.812289 -1.432496 -1.129501 -2.169723 5.591336 -1.155200 -1.743147 -1.162648 -1.834609 -2.285143 -0.117918 2.722342 1.956805 -2.984392 -0.468023 1.560743 -5.879786 1.938775 -0.736344 3.617623 -3.027319 -1.089587 1.193150 2.212984 0.411120 -1.457567 -0.538232 -0.691458 -3.278168 3.712978 -0.364136 -0.004810 2.338582 0.625175 -2.342089 0.302726 -0.288299 
590 0.580437 -0.080382 -2.134280 -0.657514 1.899217 1.602474 1.867419 -0.112082 4.447883 1.711747 -2.729512 0.555776 1.377270 -1.233238 -1.214668 1.310307 -2.656280 -0.822324 1.716172 -1.283293 -1.528374 -1.640266 -0.113062 0.355020 -0.921301 1.533995 1.588428 0.510766 1.311000 -0.242758 0.846351 3.836336 3.821325 -0.430412 -2.299912 -1.181192 1.627450 1.381198 5.020493 -0.993316 -0.904216 0.715042 -2.768763 -1.443264 -1.258056 1.632800 1.756521 -0.402212 0.990094 -2.904644 -4.821966 1.984046 0.494215 -0.883300 2.383205 1.384074 2.602945 -2.378463 -0.852257 -0.904451 1.636557 -1.362623 2.719186 -0.790481 -0.993617 1.360811 -0.400841 -1.744804 0.117875 -4.090648 -0.152170 1.868007 0.817642 -0.759021 2.207401 0.557781 3.151336 -0.258492 -0.642999 0.559874 -0.447562 4.836932 1.039703 2.014395 1.452212 3.640518 1.866379 2.039053 0.941555 0.208527 2.359312 3.991512 -0.992166 -2.529894 -3.138024 -0.914335 -1.057784 3.768397 0.707528 -2.913307 -0.772996 -5.598202 3.149998 -1.268445 -1.590654 -2.732887 -1.789012 -1.556177 1.434957 3.645969 -1.128735 0.699091 -0.024505 -0.422786 0.874648 -4.114651 2.867968 -1.252045 -3.119107 -1.292429 -1.246195 -0.940363 0.896286 1.279193 -0.777408 0.412505 0.761038 -4.168951 
